{
"bins":[{"cell_id":"SA039-A108762A-R03-C05","chr":"01","genomeStart":1000001,"length":500000,"state":2,"copy":1.5319},{"cell_id":"SA039-A108762A-R03-C05","chr":"01","genomeStart":1500001,"length":500000,"state":2,"copy":1.6423},{"cell_id":"SA039-A108762A-R03-C05","chr":"01","genomeStart":2000001,"length":500000,"state":2,"copy":2.0754},{"cell_id":"SA039-A108762A-R03-C05","chr":"01","genomeStart":3000001,"length":500000,"state":2,"copy":2.0534},{"cell_id":"SA039-A108762A-R03-C05","chr":"01","genomeStart":4000001,"length":500000,"state":2,"copy":2.1481},{"cell_id":"SA039-A108762A-R03-C05","chr":"01","genomeStart":4500001,"length":500000,"state":2,"copy":1.7478},{"cell_id":"SA039-A108762A-R03-C05","chr":"01","genomeStart":5000001,"length":500000,"state":2,"copy":2.2791},{"cell_id":"SA039-A108762A-R03-C05","chr":"01","genomeStart":5500001,"length":500000,"state":2,"copy":2.0754},{"cell_id":"SA039-A108762A-R03-C05","chr":"01","genomeStart":6000001,"length":500000,"state":2,"copy":1.7634},{"cell_id":"SA039-A108762A-R03-C05","chr":"01","genomeStart":6500001,"length":500000,"state":2,"copy":2.4184},{"cell_id":"SA039-A108762A-R03-C05","chr":"01","genomeStart":7000001,"length":500000,"state":2,"copy":2.644},{"cell_id":"SA039-A108762A-R03-C05","chr":"01","genomeStart":7500001,"length":500000,"state":2,"copy":2.4764},{"cell_id":"SA039-A108762A-R03-C05","chr":"01","genomeStart":8000001,"length":500000,"state":2,"copy":2.1837},{"cell_id":"SA039-A108762A-R03-C05","chr":"01","genomeStart":8500001,"length":500000,"state":2,"copy":2.4382},{"cell_id":"SA039-A108762A-R03-C05","chr":"01","genomeStart":9000001,"length":500000,"state":2,"copy":2.5012},{"cell_id":"SA039-A108762A-R03-C05","chr":"01","genomeStart":9500001,"length":500000,"state":2,"copy":2.3857},{"cell_id":"SA039-A108762A-R03-C05","chr":"01","genomeStart":10000001,"length":500000,"state":2,"copy":2.5675},{"cell_id":"SA039-A108762A-R03-C05","chr":"01","genomeStart":10500001,"length":500000,"state":2,"copy":2.17},{"cell_id":"SA039-A108762A-R03-C05","chr":"01","genomeStart":11000001,"length":500000,"state":2,"copy":2.7344},{"cell_id":"SA039-A108762A-R03-C05","chr":"01","genomeStart":11500001,"length":500000,"state":2,"copy":2.3545},{"cell_id":"SA039-A108762A-R03-C05","chr":"01","genomeStart":12000001,"length":500000,"state":2,"copy":2.4518},{"cell_id":"SA039-A108762A-R03-C05","chr":"01","genomeStart":12500001,"length":500000,"state":2,"copy":2.269},{"cell_id":"SA039-A108762A-R03-C05","chr":"01","genomeStart":14000001,"length":500000,"state":2,"copy":1.5572},{"cell_id":"SA039-A108762A-R03-C05","chr":"01","genomeStart":14500001,"length":500000,"state":2,"copy":2.0976},{"cell_id":"SA039-A108762A-R03-C05","chr":"01","genomeStart":15000001,"length":500000,"state":2,"copy":2.7578},{"cell_id":"SA039-A108762A-R03-C05","chr":"01","genomeStart":15500001,"length":500000,"state":2,"copy":2.4158},{"cell_id":"SA039-A108762A-R03-C05","chr":"01","genomeStart":16000001,"length":500000,"state":2,"copy":1.8912},{"cell_id":"SA039-A108762A-R03-C05","chr":"01","genomeStart":16500001,"length":500000,"state":2,"copy":3.5885},{"cell_id":"SA039-A108762A-R03-C05","chr":"01","genomeStart":17500001,"length":500000,"state":2,"copy":1.9901},{"cell_id":"SA039-A108762A-R03-C05","chr":"01","genomeStart":18000001,"length":500000,"state":2,"copy":2.2455},{"cell_id":"SA039-A108762A-R03-C05","chr":"01","genomeStart":18500001,"length":500000,"state":2,"copy":2.4109},{"cell_id":"SA039-A108762A-R03-C05","chr":"01","genomeStart":19000001,"length":500000,"state":2,"copy":2.5923},{"cell_id":"SA039-A108762A-R03-C05","chr":"01","genomeStart":19500001,"length":500000,"state":2,"copy":2.0687},{"cell_id":"SA039-A108762A-R03-C05","chr":"01","genomeStart":20000001,"length":500000,"state":2,"copy":2.5882},{"cell_id":"SA039-A108762A-R03-C05","chr":"01","genomeStart":20500001,"length":500000,"state":2,"copy":2.2871},{"cell_id":"SA039-A108762A-R03-C05","chr":"01","genomeStart":21000001,"length":500000,"state":2,"copy":2.5574},{"cell_id":"SA039-A108762A-R03-C05","chr":"01","genomeStart":21500001,"length":500000,"state":2,"copy":2.0756},{"cell_id":"SA039-A108762A-R03-C05","chr":"01","genomeStart":22000001,"length":500000,"state":2,"copy":2.0712},{"cell_id":"SA039-A108762A-R03-C05","chr":"01","genomeStart":22500001,"length":500000,"state":2,"copy":2.5165},{"cell_id":"SA039-A108762A-R03-C05","chr":"01","genomeStart":23000001,"length":500000,"state":2,"copy":2.2187},{"cell_id":"SA039-A108762A-R03-C05","chr":"01","genomeStart":23500001,"length":500000,"state":2,"copy":2.3304},{"cell_id":"SA039-A108762A-R03-C05","chr":"01","genomeStart":24000001,"length":500000,"state":2,"copy":2.1135},{"cell_id":"SA039-A108762A-R03-C05","chr":"01","genomeStart":24500001,"length":500000,"state":2,"copy":2.667},{"cell_id":"SA039-A108762A-R03-C05","chr":"01","genomeStart":25000001,"length":500000,"state":2,"copy":2.601},{"cell_id":"SA039-A108762A-R03-C05","chr":"01","genomeStart":25500001,"length":500000,"state":2,"copy":1.9949},{"cell_id":"SA039-A108762A-R03-C05","chr":"01","genomeStart":26000001,"length":500000,"state":2,"copy":2.3239},{"cell_id":"SA039-A108762A-R03-C05","chr":"01","genomeStart":26500001,"length":500000,"state":2,"copy":2.1777},{"cell_id":"SA039-A108762A-R03-C05","chr":"01","genomeStart":27000001,"length":500000,"state":2,"copy":1.9834},{"cell_id":"SA039-A108762A-R03-C05","chr":"01","genomeStart":27500001,"length":500000,"state":2,"copy":2.4167},{"cell_id":"SA039-A108762A-R03-C05","chr":"01","genomeStart":28000001,"length":500000,"state":2,"copy":2.4593},{"cell_id":"SA039-A108762A-R03-C05","chr":"01","genomeStart":28500001,"length":500000,"state":2,"copy":2.1572},{"cell_id":"SA039-A108762A-R03-C05","chr":"01","genomeStart":29000001,"length":500000,"state":2,"copy":2.2734},{"cell_id":"SA039-A108762A-R03-C05","chr":"01","genomeStart":30500001,"length":500000,"state":2,"copy":2.8732},{"cell_id":"SA039-A108762A-R03-C05","chr":"01","genomeStart":31000001,"length":500000,"state":2,"copy":2.5094},{"cell_id":"SA039-A108762A-R03-C05","chr":"01","genomeStart":31500001,"length":500000,"state":2,"copy":2.3873},{"cell_id":"SA039-A108762A-R03-C05","chr":"01","genomeStart":32000001,"length":500000,"state":2,"copy":2.393},{"cell_id":"SA039-A108762A-R03-C05","chr":"01","genomeStart":32500001,"length":500000,"state":2,"copy":2.4146},{"cell_id":"SA039-A108762A-R03-C05","chr":"01","genomeStart":33000001,"length":500000,"state":2,"copy":2.3999},{"cell_id":"SA039-A108762A-R03-C05","chr":"01","genomeStart":33500001,"length":500000,"state":3,"copy":2.768},{"cell_id":"SA039-A108762A-R03-C05","chr":"01","genomeStart":34000001,"length":500000,"state":3,"copy":3.1584},{"cell_id":"SA039-A108762A-R03-C05","chr":"01","genomeStart":34500001,"length":500000,"state":3,"copy":2.8449},{"cell_id":"SA039-A108762A-R03-C05","chr":"01","genomeStart":35000001,"length":500000,"state":3,"copy":2.8391},{"cell_id":"SA039-A108762A-R03-C05","chr":"01","genomeStart":35500001,"length":500000,"state":3,"copy":2.9205},{"cell_id":"SA039-A108762A-R03-C05","chr":"01","genomeStart":36000001,"length":500000,"state":3,"copy":2.7299},{"cell_id":"SA039-A108762A-R03-C05","chr":"01","genomeStart":36500001,"length":500000,"state":3,"copy":2.0408},{"cell_id":"SA039-A108762A-R03-C05","chr":"01","genomeStart":37000001,"length":500000,"state":3,"copy":2.308},{"cell_id":"SA039-A108762A-R03-C05","chr":"01","genomeStart":37500001,"length":500000,"state":3,"copy":2.8584},{"cell_id":"SA039-A108762A-R03-C05","chr":"01","genomeStart":38000001,"length":500000,"state":3,"copy":2.4846},{"cell_id":"SA039-A108762A-R03-C05","chr":"01","genomeStart":38500001,"length":500000,"state":3,"copy":2.8028},{"cell_id":"SA039-A108762A-R03-C05","chr":"01","genomeStart":39000001,"length":500000,"state":3,"copy":2.8101},{"cell_id":"SA039-A108762A-R03-C05","chr":"01","genomeStart":39500001,"length":500000,"state":3,"copy":2.9534},{"cell_id":"SA039-A108762A-R03-C05","chr":"01","genomeStart":40000001,"length":500000,"state":3,"copy":2.3578},{"cell_id":"SA039-A108762A-R03-C05","chr":"01","genomeStart":40500001,"length":500000,"state":3,"copy":3.1644},{"cell_id":"SA039-A108762A-R03-C05","chr":"01","genomeStart":41000001,"length":500000,"state":2,"copy":2.2613},{"cell_id":"SA039-A108762A-R03-C05","chr":"01","genomeStart":41500001,"length":500000,"state":2,"copy":1.7853},{"cell_id":"SA039-A108762A-R03-C05","chr":"01","genomeStart":42000001,"length":500000,"state":2,"copy":1.4501},{"cell_id":"SA039-A108762A-R03-C05","chr":"01","genomeStart":42500001,"length":500000,"state":3,"copy":2.9017},{"cell_id":"SA039-A108762A-R03-C05","chr":"01","genomeStart":43000001,"length":500000,"state":3,"copy":2.7077},{"cell_id":"SA039-A108762A-R03-C05","chr":"01","genomeStart":43500001,"length":500000,"state":3,"copy":2.7204},{"cell_id":"SA039-A108762A-R03-C05","chr":"01","genomeStart":44000001,"length":500000,"state":3,"copy":2.0722},{"cell_id":"SA039-A108762A-R03-C05","chr":"01","genomeStart":44500001,"length":500000,"state":3,"copy":2.8521},{"cell_id":"SA039-A108762A-R03-C05","chr":"01","genomeStart":45000001,"length":500000,"state":3,"copy":2.2939},{"cell_id":"SA039-A108762A-R03-C05","chr":"01","genomeStart":45500001,"length":500000,"state":3,"copy":2.9078},{"cell_id":"SA039-A108762A-R03-C05","chr":"01","genomeStart":46000001,"length":500000,"state":3,"copy":2.7107},{"cell_id":"SA039-A108762A-R03-C05","chr":"01","genomeStart":46500001,"length":500000,"state":2,"copy":2.0418},{"cell_id":"SA039-A108762A-R03-C05","chr":"01","genomeStart":47000001,"length":500000,"state":2,"copy":2.1025},{"cell_id":"SA039-A108762A-R03-C05","chr":"01","genomeStart":47500001,"length":500000,"state":2,"copy":1.9014},{"cell_id":"SA039-A108762A-R03-C05","chr":"01","genomeStart":48000001,"length":500000,"state":2,"copy":1.7333},{"cell_id":"SA039-A108762A-R03-C05","chr":"01","genomeStart":48500001,"length":500000,"state":2,"copy":1.4876},{"cell_id":"SA039-A108762A-R03-C05","chr":"01","genomeStart":49000001,"length":500000,"state":2,"copy":2.2442},{"cell_id":"SA039-A108762A-R03-C05","chr":"01","genomeStart":49500001,"length":500000,"state":2,"copy":1.4961},{"cell_id":"SA039-A108762A-R03-C05","chr":"01","genomeStart":50000001,"length":500000,"state":2,"copy":1.0542},{"cell_id":"SA039-A108762A-R03-C05","chr":"01","genomeStart":50500001,"length":500000,"state":2,"copy":1.8184},{"cell_id":"SA039-A108762A-R03-C05","chr":"01","genomeStart":51000001,"length":500000,"state":2,"copy":2.0079},{"cell_id":"SA039-A108762A-R03-C05","chr":"01","genomeStart":51500001,"length":500000,"state":2,"copy":2.3409},{"cell_id":"SA039-A108762A-R03-C05","chr":"01","genomeStart":52000001,"length":500000,"state":2,"copy":2.7659},{"cell_id":"SA039-A108762A-R03-C05","chr":"01","genomeStart":52500001,"length":500000,"state":2,"copy":3.0983},{"cell_id":"SA039-A108762A-R03-C05","chr":"01","genomeStart":53000001,"length":500000,"state":2,"copy":2.3173},{"cell_id":"SA039-A108762A-R03-C05","chr":"01","genomeStart":53500001,"length":500000,"state":2,"copy":1.9191},{"cell_id":"SA039-A108762A-R03-C05","chr":"01","genomeStart":54000001,"length":500000,"state":2,"copy":2.3489},{"cell_id":"SA039-A108762A-R03-C05","chr":"01","genomeStart":54500001,"length":500000,"state":2,"copy":1.3864},{"cell_id":"SA039-A108762A-R03-C05","chr":"01","genomeStart":55000001,"length":500000,"state":2,"copy":0.9874},{"cell_id":"SA039-A108762A-R03-C05","chr":"01","genomeStart":55500001,"length":500000,"state":2,"copy":1.512},{"cell_id":"SA039-A108762A-R03-C05","chr":"01","genomeStart":56000001,"length":500000,"state":2,"copy":1.5859},{"cell_id":"SA039-A108762A-R03-C05","chr":"01","genomeStart":56500001,"length":500000,"state":2,"copy":1.5681},{"cell_id":"SA039-A108762A-R03-C05","chr":"01","genomeStart":57000001,"length":500000,"state":2,"copy":1.3331},{"cell_id":"SA039-A108762A-R03-C05","chr":"01","genomeStart":57500001,"length":500000,"state":2,"copy":1.5777},{"cell_id":"SA039-A108762A-R03-C05","chr":"01","genomeStart":58000001,"length":500000,"state":2,"copy":1.3703},{"cell_id":"SA039-A108762A-R03-C05","chr":"01","genomeStart":58500001,"length":500000,"state":2,"copy":1.5462},{"cell_id":"SA039-A108762A-R03-C05","chr":"01","genomeStart":59000001,"length":500000,"state":2,"copy":1.6372},{"cell_id":"SA039-A108762A-R03-C05","chr":"01","genomeStart":59500001,"length":500000,"state":2,"copy":1.5494},{"cell_id":"SA039-A108762A-R03-C05","chr":"01","genomeStart":60000001,"length":500000,"state":2,"copy":2.0803},{"cell_id":"SA039-A108762A-R03-C05","chr":"01","genomeStart":60500001,"length":500000,"state":2,"copy":1.6523},{"cell_id":"SA039-A108762A-R03-C05","chr":"01","genomeStart":61000001,"length":500000,"state":2,"copy":1.5891},{"cell_id":"SA039-A108762A-R03-C05","chr":"01","genomeStart":61500001,"length":500000,"state":2,"copy":1.9385},{"cell_id":"SA039-A108762A-R03-C05","chr":"01","genomeStart":62000001,"length":500000,"state":2,"copy":1.5211},{"cell_id":"SA039-A108762A-R03-C05","chr":"01","genomeStart":62500001,"length":500000,"state":2,"copy":1.775},{"cell_id":"SA039-A108762A-R03-C05","chr":"01","genomeStart":63000001,"length":500000,"state":2,"copy":2.5644},{"cell_id":"SA039-A108762A-R03-C05","chr":"01","genomeStart":63500001,"length":500000,"state":2,"copy":2.2395},{"cell_id":"SA039-A108762A-R03-C05","chr":"01","genomeStart":64000001,"length":500000,"state":2,"copy":1.6781},{"cell_id":"SA039-A108762A-R03-C05","chr":"01","genomeStart":64500001,"length":500000,"state":2,"copy":1.6309},{"cell_id":"SA039-A108762A-R03-C05","chr":"01","genomeStart":65000001,"length":500000,"state":2,"copy":1.9085},{"cell_id":"SA039-A108762A-R03-C05","chr":"01","genomeStart":65500001,"length":500000,"state":2,"copy":2.389},{"cell_id":"SA039-A108762A-R03-C05","chr":"01","genomeStart":66000001,"length":500000,"state":2,"copy":1.8362},{"cell_id":"SA039-A108762A-R03-C05","chr":"01","genomeStart":66500001,"length":500000,"state":3,"copy":3.1283},{"cell_id":"SA039-A108762A-R03-C05","chr":"01","genomeStart":67000001,"length":500000,"state":3,"copy":3.2076},{"cell_id":"SA039-A108762A-R03-C05","chr":"01","genomeStart":67500001,"length":500000,"state":3,"copy":3.2481},{"cell_id":"SA039-A108762A-R03-C05","chr":"01","genomeStart":68000001,"length":500000,"state":3,"copy":2.674},{"cell_id":"SA039-A108762A-R03-C05","chr":"01","genomeStart":68500001,"length":500000,"state":3,"copy":3.1575},{"cell_id":"SA039-A108762A-R03-C05","chr":"01","genomeStart":69000001,"length":500000,"state":3,"copy":2.9946},{"cell_id":"SA039-A108762A-R03-C05","chr":"01","genomeStart":69500001,"length":500000,"state":2,"copy":2.2974},{"cell_id":"SA039-A108762A-R03-C05","chr":"01","genomeStart":70000001,"length":500000,"state":2,"copy":2.3718},{"cell_id":"SA039-A108762A-R03-C05","chr":"01","genomeStart":70500001,"length":500000,"state":2,"copy":2.0873},{"cell_id":"SA039-A108762A-R03-C05","chr":"01","genomeStart":71000001,"length":500000,"state":2,"copy":2.2074},{"cell_id":"SA039-A108762A-R03-C05","chr":"01","genomeStart":71500001,"length":500000,"state":2,"copy":2.0843},{"cell_id":"SA039-A108762A-R03-C05","chr":"01","genomeStart":72000001,"length":500000,"state":2,"copy":1.9624},{"cell_id":"SA039-A108762A-R03-C05","chr":"01","genomeStart":72500001,"length":500000,"state":2,"copy":1.978},{"cell_id":"SA039-A108762A-R03-C05","chr":"01","genomeStart":73000001,"length":500000,"state":2,"copy":2.1025},{"cell_id":"SA039-A108762A-R03-C05","chr":"01","genomeStart":73500001,"length":500000,"state":2,"copy":1.6054},{"cell_id":"SA039-A108762A-R03-C05","chr":"01","genomeStart":74000001,"length":500000,"state":2,"copy":2.2844},{"cell_id":"SA039-A108762A-R03-C05","chr":"01","genomeStart":74500001,"length":500000,"state":2,"copy":2.5336},{"cell_id":"SA039-A108762A-R03-C05","chr":"01","genomeStart":75000001,"length":500000,"state":2,"copy":2.5267},{"cell_id":"SA039-A108762A-R03-C05","chr":"01","genomeStart":75500001,"length":500000,"state":2,"copy":2.2748},{"cell_id":"SA039-A108762A-R03-C05","chr":"01","genomeStart":76000001,"length":500000,"state":2,"copy":2.1091},{"cell_id":"SA039-A108762A-R03-C05","chr":"01","genomeStart":76500001,"length":500000,"state":2,"copy":1.936},{"cell_id":"SA039-A108762A-R03-C05","chr":"01","genomeStart":77000001,"length":500000,"state":3,"copy":2.959},{"cell_id":"SA039-A108762A-R03-C05","chr":"01","genomeStart":77500001,"length":500000,"state":3,"copy":2.4935},{"cell_id":"SA039-A108762A-R03-C05","chr":"01","genomeStart":78000001,"length":500000,"state":3,"copy":2.2062},{"cell_id":"SA039-A108762A-R03-C05","chr":"01","genomeStart":78500001,"length":500000,"state":3,"copy":2.5863},{"cell_id":"SA039-A108762A-R03-C05","chr":"01","genomeStart":79000001,"length":500000,"state":3,"copy":3.7109},{"cell_id":"SA039-A108762A-R03-C05","chr":"01","genomeStart":79500001,"length":500000,"state":3,"copy":3.1415},{"cell_id":"SA039-A108762A-R03-C05","chr":"01","genomeStart":80000001,"length":500000,"state":2,"copy":2.1207},{"cell_id":"SA039-A108762A-R03-C05","chr":"01","genomeStart":80500001,"length":500000,"state":2,"copy":2.2841},{"cell_id":"SA039-A108762A-R03-C05","chr":"01","genomeStart":81000001,"length":500000,"state":2,"copy":2.2759},{"cell_id":"SA039-A108762A-R03-C05","chr":"01","genomeStart":81500001,"length":500000,"state":2,"copy":1.6595},{"cell_id":"SA039-A108762A-R03-C05","chr":"01","genomeStart":82000001,"length":500000,"state":2,"copy":1.3798},{"cell_id":"SA039-A108762A-R03-C05","chr":"01","genomeStart":82500001,"length":500000,"state":2,"copy":1.396},{"cell_id":"SA039-A108762A-R03-C05","chr":"01","genomeStart":83000001,"length":500000,"state":2,"copy":2.1136},{"cell_id":"SA039-A108762A-R03-C05","chr":"01","genomeStart":83500001,"length":500000,"state":2,"copy":1.5773},{"cell_id":"SA039-A108762A-R03-C05","chr":"01","genomeStart":84000001,"length":500000,"state":2,"copy":1.921},{"cell_id":"SA039-A108762A-R03-C05","chr":"01","genomeStart":84500001,"length":500000,"state":2,"copy":2.138},{"cell_id":"SA039-A108762A-R03-C05","chr":"01","genomeStart":85000001,"length":500000,"state":2,"copy":1.2851},{"cell_id":"SA039-A108762A-R03-C05","chr":"01","genomeStart":85500001,"length":500000,"state":2,"copy":2.1158},{"cell_id":"SA039-A108762A-R03-C05","chr":"01","genomeStart":86000001,"length":500000,"state":2,"copy":2.2069},{"cell_id":"SA039-A108762A-R03-C05","chr":"01","genomeStart":86500001,"length":500000,"state":2,"copy":1.7148},{"cell_id":"SA039-A108762A-R03-C05","chr":"01","genomeStart":87000001,"length":500000,"state":2,"copy":1.7982},{"cell_id":"SA039-A108762A-R03-C05","chr":"01","genomeStart":87500001,"length":500000,"state":2,"copy":1.4272},{"cell_id":"SA039-A108762A-R03-C05","chr":"01","genomeStart":88000001,"length":500000,"state":2,"copy":0.9436},{"cell_id":"SA039-A108762A-R03-C05","chr":"01","genomeStart":88500001,"length":500000,"state":2,"copy":1.6511},{"cell_id":"SA039-A108762A-R03-C05","chr":"01","genomeStart":89000001,"length":500000,"state":2,"copy":2.0733},{"cell_id":"SA039-A108762A-R03-C05","chr":"01","genomeStart":89500001,"length":500000,"state":2,"copy":1.6427},{"cell_id":"SA039-A108762A-R03-C05","chr":"01","genomeStart":90000001,"length":500000,"state":2,"copy":1.3514},{"cell_id":"SA039-A108762A-R03-C05","chr":"01","genomeStart":90500001,"length":500000,"state":2,"copy":1.4227},{"cell_id":"SA039-A108762A-R03-C05","chr":"01","genomeStart":91000001,"length":500000,"state":2,"copy":1.8382},{"cell_id":"SA039-A108762A-R03-C05","chr":"01","genomeStart":91500001,"length":500000,"state":2,"copy":1.372},{"cell_id":"SA039-A108762A-R03-C05","chr":"01","genomeStart":92000001,"length":500000,"state":2,"copy":1.5522},{"cell_id":"SA039-A108762A-R03-C05","chr":"01","genomeStart":92500001,"length":500000,"state":3,"copy":3.108},{"cell_id":"SA039-A108762A-R03-C05","chr":"01","genomeStart":93000001,"length":500000,"state":3,"copy":3.242},{"cell_id":"SA039-A108762A-R03-C05","chr":"01","genomeStart":93500001,"length":500000,"state":3,"copy":3.4351},{"cell_id":"SA039-A108762A-R03-C05","chr":"01","genomeStart":94000001,"length":500000,"state":3,"copy":2.8285},{"cell_id":"SA039-A108762A-R03-C05","chr":"01","genomeStart":94500001,"length":500000,"state":3,"copy":3.1332},{"cell_id":"SA039-A108762A-R03-C05","chr":"01","genomeStart":95000001,"length":500000,"state":3,"copy":2.6068},{"cell_id":"SA039-A108762A-R03-C05","chr":"01","genomeStart":95500001,"length":500000,"state":3,"copy":2.8292},{"cell_id":"SA039-A108762A-R03-C05","chr":"01","genomeStart":96000001,"length":500000,"state":3,"copy":3.483},{"cell_id":"SA039-A108762A-R03-C05","chr":"01","genomeStart":96500001,"length":500000,"state":2,"copy":1.9562},{"cell_id":"SA039-A108762A-R03-C05","chr":"01","genomeStart":97000001,"length":500000,"state":2,"copy":1.9357},{"cell_id":"SA039-A108762A-R03-C05","chr":"01","genomeStart":97500001,"length":500000,"state":2,"copy":2.1569},{"cell_id":"SA039-A108762A-R03-C05","chr":"01","genomeStart":98000001,"length":500000,"state":2,"copy":1.9831},{"cell_id":"SA039-A108762A-R03-C05","chr":"01","genomeStart":98500001,"length":500000,"state":2,"copy":1.8506},{"cell_id":"SA039-A108762A-R03-C05","chr":"01","genomeStart":99000001,"length":500000,"state":2,"copy":2.0022},{"cell_id":"SA039-A108762A-R03-C05","chr":"01","genomeStart":99500001,"length":500000,"state":2,"copy":2.0524},{"cell_id":"SA039-A108762A-R03-C05","chr":"01","genomeStart":100000001,"length":500000,"state":3,"copy":3.5199},{"cell_id":"SA039-A108762A-R03-C05","chr":"01","genomeStart":100500001,"length":500000,"state":3,"copy":2.7861},{"cell_id":"SA039-A108762A-R03-C05","chr":"01","genomeStart":101000001,"length":500000,"state":3,"copy":3.5198},{"cell_id":"SA039-A108762A-R03-C05","chr":"01","genomeStart":101500001,"length":500000,"state":3,"copy":2.786},{"cell_id":"SA039-A108762A-R03-C05","chr":"01","genomeStart":102000001,"length":500000,"state":3,"copy":3.5534},{"cell_id":"SA039-A108762A-R03-C05","chr":"01","genomeStart":102500001,"length":500000,"state":2,"copy":2.1421},{"cell_id":"SA039-A108762A-R03-C05","chr":"01","genomeStart":103000001,"length":500000,"state":2,"copy":2.4591},{"cell_id":"SA039-A108762A-R03-C05","chr":"01","genomeStart":104000001,"length":500000,"state":2,"copy":1.3734},{"cell_id":"SA039-A108762A-R03-C05","chr":"01","genomeStart":104500001,"length":500000,"state":2,"copy":1.9247},{"cell_id":"SA039-A108762A-R03-C05","chr":"01","genomeStart":105000001,"length":500000,"state":2,"copy":1.3787},{"cell_id":"SA039-A108762A-R03-C05","chr":"01","genomeStart":105500001,"length":500000,"state":2,"copy":2.3522},{"cell_id":"SA039-A108762A-R03-C05","chr":"01","genomeStart":106000001,"length":500000,"state":2,"copy":2.3273},{"cell_id":"SA039-A108762A-R03-C05","chr":"01","genomeStart":106500001,"length":500000,"state":2,"copy":2.6661},{"cell_id":"SA039-A108762A-R03-C05","chr":"01","genomeStart":107000001,"length":500000,"state":2,"copy":2.1755},{"cell_id":"SA039-A108762A-R03-C05","chr":"01","genomeStart":107500001,"length":500000,"state":2,"copy":2.0937},{"cell_id":"SA039-A108762A-R03-C05","chr":"01","genomeStart":108000001,"length":500000,"state":2,"copy":2.8044},{"cell_id":"SA039-A108762A-R03-C05","chr":"01","genomeStart":108500001,"length":500000,"state":2,"copy":1.8574},{"cell_id":"SA039-A108762A-R03-C05","chr":"01","genomeStart":109000001,"length":500000,"state":3,"copy":3.7517},{"cell_id":"SA039-A108762A-R03-C05","chr":"01","genomeStart":109500001,"length":500000,"state":3,"copy":2.8036},{"cell_id":"SA039-A108762A-R03-C05","chr":"01","genomeStart":110000001,"length":500000,"state":3,"copy":2.6992},{"cell_id":"SA039-A108762A-R03-C05","chr":"01","genomeStart":110500001,"length":500000,"state":3,"copy":2.3697},{"cell_id":"SA039-A108762A-R03-C05","chr":"01","genomeStart":111000001,"length":500000,"state":3,"copy":2.4669},{"cell_id":"SA039-A108762A-R03-C05","chr":"01","genomeStart":111500001,"length":500000,"state":3,"copy":3.1901},{"cell_id":"SA039-A108762A-R03-C05","chr":"01","genomeStart":112000001,"length":500000,"state":3,"copy":2.6412},{"cell_id":"SA039-A108762A-R03-C05","chr":"01","genomeStart":112500001,"length":500000,"state":3,"copy":2.5278},{"cell_id":"SA039-A108762A-R03-C05","chr":"01","genomeStart":113000001,"length":500000,"state":3,"copy":3.1285},{"cell_id":"SA039-A108762A-R03-C05","chr":"01","genomeStart":113500001,"length":500000,"state":3,"copy":2.7003},{"cell_id":"SA039-A108762A-R03-C05","chr":"01","genomeStart":114000001,"length":500000,"state":3,"copy":3.039},{"cell_id":"SA039-A108762A-R03-C05","chr":"01","genomeStart":114500001,"length":500000,"state":3,"copy":2.5021},{"cell_id":"SA039-A108762A-R03-C05","chr":"01","genomeStart":115000001,"length":500000,"state":2,"copy":1.8082},{"cell_id":"SA039-A108762A-R03-C05","chr":"01","genomeStart":115500001,"length":500000,"state":2,"copy":1.725},{"cell_id":"SA039-A108762A-R03-C05","chr":"01","genomeStart":116000001,"length":500000,"state":2,"copy":2.4471},{"cell_id":"SA039-A108762A-R03-C05","chr":"01","genomeStart":116500001,"length":500000,"state":3,"copy":3.091},{"cell_id":"SA039-A108762A-R03-C05","chr":"01","genomeStart":117000001,"length":500000,"state":3,"copy":2.6351},{"cell_id":"SA039-A108762A-R03-C05","chr":"01","genomeStart":117500001,"length":500000,"state":3,"copy":3.7084},{"cell_id":"SA039-A108762A-R03-C05","chr":"01","genomeStart":118000001,"length":500000,"state":3,"copy":3.7747},{"cell_id":"SA039-A108762A-R03-C05","chr":"01","genomeStart":118500001,"length":500000,"state":3,"copy":2.974},{"cell_id":"SA039-A108762A-R03-C05","chr":"01","genomeStart":119000001,"length":500000,"state":2,"copy":1.7536},{"cell_id":"SA039-A108762A-R03-C05","chr":"01","genomeStart":119500001,"length":500000,"state":2,"copy":1.6378},{"cell_id":"SA039-A108762A-R03-C05","chr":"01","genomeStart":120000001,"length":500000,"state":2,"copy":1.9898},{"cell_id":"SA039-A108762A-R03-C05","chr":"01","genomeStart":145000001,"length":500000,"state":2,"copy":4.7669},{"cell_id":"SA039-A108762A-R03-C05","chr":"01","genomeStart":146500001,"length":500000,"state":2,"copy":1.8986},{"cell_id":"SA039-A108762A-R03-C05","chr":"01","genomeStart":147000001,"length":500000,"state":2,"copy":1.5249},{"cell_id":"SA039-A108762A-R03-C05","chr":"01","genomeStart":147500001,"length":500000,"state":2,"copy":0.9361},{"cell_id":"SA039-A108762A-R03-C05","chr":"01","genomeStart":150000001,"length":500000,"state":2,"copy":2.8037},{"cell_id":"SA039-A108762A-R03-C05","chr":"01","genomeStart":150500001,"length":500000,"state":2,"copy":2.0966},{"cell_id":"SA039-A108762A-R03-C05","chr":"01","genomeStart":151000001,"length":500000,"state":2,"copy":2.3355},{"cell_id":"SA039-A108762A-R03-C05","chr":"01","genomeStart":151500001,"length":500000,"state":2,"copy":2.2116},{"cell_id":"SA039-A108762A-R03-C05","chr":"01","genomeStart":152000001,"length":500000,"state":3,"copy":3.0353},{"cell_id":"SA039-A108762A-R03-C05","chr":"01","genomeStart":152500001,"length":500000,"state":3,"copy":2.559},{"cell_id":"SA039-A108762A-R03-C05","chr":"01","genomeStart":153000001,"length":500000,"state":3,"copy":2.8443},{"cell_id":"SA039-A108762A-R03-C05","chr":"01","genomeStart":153500001,"length":500000,"state":3,"copy":2.5975},{"cell_id":"SA039-A108762A-R03-C05","chr":"01","genomeStart":154000001,"length":500000,"state":3,"copy":2.526},{"cell_id":"SA039-A108762A-R03-C05","chr":"01","genomeStart":154500001,"length":500000,"state":2,"copy":2.3826},{"cell_id":"SA039-A108762A-R03-C05","chr":"01","genomeStart":155000001,"length":500000,"state":2,"copy":2.1597},{"cell_id":"SA039-A108762A-R03-C05","chr":"01","genomeStart":155500001,"length":500000,"state":2,"copy":2.5337},{"cell_id":"SA039-A108762A-R03-C05","chr":"01","genomeStart":156000001,"length":500000,"state":2,"copy":1.9872},{"cell_id":"SA039-A108762A-R03-C05","chr":"01","genomeStart":156500001,"length":500000,"state":2,"copy":2.2831},{"cell_id":"SA039-A108762A-R03-C05","chr":"01","genomeStart":157000001,"length":500000,"state":2,"copy":2.478},{"cell_id":"SA039-A108762A-R03-C05","chr":"01","genomeStart":157500001,"length":500000,"state":2,"copy":2.0238},{"cell_id":"SA039-A108762A-R03-C05","chr":"01","genomeStart":158000001,"length":500000,"state":2,"copy":1.7245},{"cell_id":"SA039-A108762A-R03-C05","chr":"01","genomeStart":158500001,"length":500000,"state":2,"copy":2.0558},{"cell_id":"SA039-A108762A-R03-C05","chr":"01","genomeStart":159000001,"length":500000,"state":2,"copy":1.7853},{"cell_id":"SA039-A108762A-R03-C05","chr":"01","genomeStart":159500001,"length":500000,"state":2,"copy":1.8488},{"cell_id":"SA039-A108762A-R03-C05","chr":"01","genomeStart":160000001,"length":500000,"state":2,"copy":1.46},{"cell_id":"SA039-A108762A-R03-C05","chr":"01","genomeStart":160500001,"length":500000,"state":3,"copy":3.0179},{"cell_id":"SA039-A108762A-R03-C05","chr":"01","genomeStart":161000001,"length":500000,"state":3,"copy":2.271},{"cell_id":"SA039-A108762A-R03-C05","chr":"01","genomeStart":161500001,"length":500000,"state":3,"copy":2.6084},{"cell_id":"SA039-A108762A-R03-C05","chr":"01","genomeStart":162000001,"length":500000,"state":3,"copy":2.8497},{"cell_id":"SA039-A108762A-R03-C05","chr":"01","genomeStart":162500001,"length":500000,"state":3,"copy":3.4079},{"cell_id":"SA039-A108762A-R03-C05","chr":"01","genomeStart":163000001,"length":500000,"state":3,"copy":2.8607},{"cell_id":"SA039-A108762A-R03-C05","chr":"01","genomeStart":163500001,"length":500000,"state":2,"copy":1.9143},{"cell_id":"SA039-A108762A-R03-C05","chr":"01","genomeStart":164000001,"length":500000,"state":2,"copy":1.8651},{"cell_id":"SA039-A108762A-R03-C05","chr":"01","genomeStart":164500001,"length":500000,"state":2,"copy":1.8503},{"cell_id":"SA039-A108762A-R03-C05","chr":"01","genomeStart":165000001,"length":500000,"state":2,"copy":1.7616},{"cell_id":"SA039-A108762A-R03-C05","chr":"01","genomeStart":165500001,"length":500000,"state":2,"copy":1.4214},{"cell_id":"SA039-A108762A-R03-C05","chr":"01","genomeStart":166000001,"length":500000,"state":2,"copy":1.8144},{"cell_id":"SA039-A108762A-R03-C05","chr":"01","genomeStart":166500001,"length":500000,"state":2,"copy":2.1846},{"cell_id":"SA039-A108762A-R03-C05","chr":"01","genomeStart":167000001,"length":500000,"state":2,"copy":2.2983},{"cell_id":"SA039-A108762A-R03-C05","chr":"01","genomeStart":167500001,"length":500000,"state":3,"copy":2.8788},{"cell_id":"SA039-A108762A-R03-C05","chr":"01","genomeStart":168000001,"length":500000,"state":3,"copy":3.0454},{"cell_id":"SA039-A108762A-R03-C05","chr":"01","genomeStart":168500001,"length":500000,"state":3,"copy":3.0386},{"cell_id":"SA039-A108762A-R03-C05","chr":"01","genomeStart":169000001,"length":500000,"state":3,"copy":2.5687},{"cell_id":"SA039-A108762A-R03-C05","chr":"01","genomeStart":169500001,"length":500000,"state":2,"copy":1.9266},{"cell_id":"SA039-A108762A-R03-C05","chr":"01","genomeStart":170000001,"length":500000,"state":2,"copy":1.8716},{"cell_id":"SA039-A108762A-R03-C05","chr":"01","genomeStart":170500001,"length":500000,"state":2,"copy":1.4207},{"cell_id":"SA039-A108762A-R03-C05","chr":"01","genomeStart":171000001,"length":500000,"state":2,"copy":0.9975},{"cell_id":"SA039-A108762A-R03-C05","chr":"01","genomeStart":171500001,"length":500000,"state":2,"copy":1.2819},{"cell_id":"SA039-A108762A-R03-C05","chr":"01","genomeStart":172000001,"length":500000,"state":2,"copy":1.9821},{"cell_id":"SA039-A108762A-R03-C05","chr":"01","genomeStart":172500001,"length":500000,"state":2,"copy":1.6375},{"cell_id":"SA039-A108762A-R03-C05","chr":"01","genomeStart":173000001,"length":500000,"state":2,"copy":1.7133},{"cell_id":"SA039-A108762A-R03-C05","chr":"01","genomeStart":173500001,"length":500000,"state":2,"copy":2.8325},{"cell_id":"SA039-A108762A-R03-C05","chr":"01","genomeStart":174000001,"length":500000,"state":2,"copy":3.7587},{"cell_id":"SA039-A108762A-R03-C05","chr":"01","genomeStart":174500001,"length":500000,"state":2,"copy":2.25},{"cell_id":"SA039-A108762A-R03-C05","chr":"01","genomeStart":175000001,"length":500000,"state":2,"copy":2.0562},{"cell_id":"SA039-A108762A-R03-C05","chr":"01","genomeStart":175500001,"length":500000,"state":2,"copy":1.7437},{"cell_id":"SA039-A108762A-R03-C05","chr":"01","genomeStart":176000001,"length":500000,"state":2,"copy":1.8329},{"cell_id":"SA039-A108762A-R03-C05","chr":"01","genomeStart":176500001,"length":500000,"state":2,"copy":1.9164},{"cell_id":"SA039-A108762A-R03-C05","chr":"01","genomeStart":177000001,"length":500000,"state":3,"copy":3.2919},{"cell_id":"SA039-A108762A-R03-C05","chr":"01","genomeStart":177500001,"length":500000,"state":3,"copy":3.1694},{"cell_id":"SA039-A108762A-R03-C05","chr":"01","genomeStart":178000001,"length":500000,"state":3,"copy":3.5606},{"cell_id":"SA039-A108762A-R03-C05","chr":"01","genomeStart":178500001,"length":500000,"state":3,"copy":2.8048},{"cell_id":"SA039-A108762A-R03-C05","chr":"01","genomeStart":179000001,"length":500000,"state":3,"copy":2.6637},{"cell_id":"SA039-A108762A-R03-C05","chr":"01","genomeStart":179500001,"length":500000,"state":3,"copy":3.4385},{"cell_id":"SA039-A108762A-R03-C05","chr":"01","genomeStart":180000001,"length":500000,"state":3,"copy":2.5612},{"cell_id":"SA039-A108762A-R03-C05","chr":"01","genomeStart":180500001,"length":500000,"state":3,"copy":2.0754},{"cell_id":"SA039-A108762A-R03-C05","chr":"01","genomeStart":181000001,"length":500000,"state":3,"copy":2.2296},{"cell_id":"SA039-A108762A-R03-C05","chr":"01","genomeStart":181500001,"length":500000,"state":3,"copy":2.9745},{"cell_id":"SA039-A108762A-R03-C05","chr":"01","genomeStart":182000001,"length":500000,"state":3,"copy":3.1026},{"cell_id":"SA039-A108762A-R03-C05","chr":"01","genomeStart":182500001,"length":500000,"state":3,"copy":2.6545},{"cell_id":"SA039-A108762A-R03-C05","chr":"01","genomeStart":183000001,"length":500000,"state":3,"copy":2.6033},{"cell_id":"SA039-A108762A-R03-C05","chr":"01","genomeStart":183500001,"length":500000,"state":3,"copy":2.9813},{"cell_id":"SA039-A108762A-R03-C05","chr":"01","genomeStart":184000001,"length":500000,"state":3,"copy":3.352},{"cell_id":"SA039-A108762A-R03-C05","chr":"01","genomeStart":184500001,"length":500000,"state":2,"copy":2.0443},{"cell_id":"SA039-A108762A-R03-C05","chr":"01","genomeStart":185000001,"length":500000,"state":2,"copy":1.7719},{"cell_id":"SA039-A108762A-R03-C05","chr":"01","genomeStart":185500001,"length":500000,"state":2,"copy":1.7398},{"cell_id":"SA039-A108762A-R03-C05","chr":"01","genomeStart":186000001,"length":500000,"state":2,"copy":1.6784},{"cell_id":"SA039-A108762A-R03-C05","chr":"01","genomeStart":186500001,"length":500000,"state":2,"copy":1.4365},{"cell_id":"SA039-A108762A-R03-C05","chr":"01","genomeStart":187000001,"length":500000,"state":2,"copy":1.9791},{"cell_id":"SA039-A108762A-R03-C05","chr":"01","genomeStart":187500001,"length":500000,"state":2,"copy":1.8262},{"cell_id":"SA039-A108762A-R03-C05","chr":"01","genomeStart":188000001,"length":500000,"state":2,"copy":2.6561},{"cell_id":"SA039-A108762A-R03-C05","chr":"01","genomeStart":188500001,"length":500000,"state":2,"copy":2.5151},{"cell_id":"SA039-A108762A-R03-C05","chr":"01","genomeStart":189000001,"length":500000,"state":2,"copy":2.1738},{"cell_id":"SA039-A108762A-R03-C05","chr":"01","genomeStart":189500001,"length":500000,"state":2,"copy":2.2672},{"cell_id":"SA039-A108762A-R03-C05","chr":"01","genomeStart":190000001,"length":500000,"state":2,"copy":2.3275},{"cell_id":"SA039-A108762A-R03-C05","chr":"01","genomeStart":190500001,"length":500000,"state":2,"copy":1.5976},{"cell_id":"SA039-A108762A-R03-C05","chr":"01","genomeStart":191000001,"length":500000,"state":2,"copy":2.6142},{"cell_id":"SA039-A108762A-R03-C05","chr":"01","genomeStart":191500001,"length":500000,"state":2,"copy":1.8732},{"cell_id":"SA039-A108762A-R03-C05","chr":"01","genomeStart":192000001,"length":500000,"state":2,"copy":2.5284},{"cell_id":"SA039-A108762A-R03-C05","chr":"01","genomeStart":192500001,"length":500000,"state":2,"copy":1.593},{"cell_id":"SA039-A108762A-R03-C05","chr":"01","genomeStart":193000001,"length":500000,"state":2,"copy":2.1357},{"cell_id":"SA039-A108762A-R03-C05","chr":"01","genomeStart":193500001,"length":500000,"state":2,"copy":2.6121},{"cell_id":"SA039-A108762A-R03-C05","chr":"01","genomeStart":194000001,"length":500000,"state":2,"copy":2.608},{"cell_id":"SA039-A108762A-R03-C05","chr":"01","genomeStart":194500001,"length":500000,"state":2,"copy":2.3037},{"cell_id":"SA039-A108762A-R03-C05","chr":"01","genomeStart":195000001,"length":500000,"state":2,"copy":2.3186},{"cell_id":"SA039-A108762A-R03-C05","chr":"01","genomeStart":195500001,"length":500000,"state":2,"copy":2.6311},{"cell_id":"SA039-A108762A-R03-C05","chr":"01","genomeStart":196000001,"length":500000,"state":2,"copy":2.1084},{"cell_id":"SA039-A108762A-R03-C05","chr":"01","genomeStart":196500001,"length":500000,"state":2,"copy":2.0102},{"cell_id":"SA039-A108762A-R03-C05","chr":"01","genomeStart":197000001,"length":500000,"state":2,"copy":2.5405},{"cell_id":"SA039-A108762A-R03-C05","chr":"01","genomeStart":197500001,"length":500000,"state":2,"copy":2.5759},{"cell_id":"SA039-A108762A-R03-C05","chr":"01","genomeStart":198000001,"length":500000,"state":2,"copy":2.328},{"cell_id":"SA039-A108762A-R03-C05","chr":"01","genomeStart":198500001,"length":500000,"state":2,"copy":1.62},{"cell_id":"SA039-A108762A-R03-C05","chr":"01","genomeStart":199000001,"length":500000,"state":2,"copy":1.8472},{"cell_id":"SA039-A108762A-R03-C05","chr":"01","genomeStart":199500001,"length":500000,"state":2,"copy":2.058},{"cell_id":"SA039-A108762A-R03-C05","chr":"01","genomeStart":200000001,"length":500000,"state":2,"copy":2.5306},{"cell_id":"SA039-A108762A-R03-C05","chr":"01","genomeStart":200500001,"length":500000,"state":2,"copy":2.9494},{"cell_id":"SA039-A108762A-R03-C05","chr":"01","genomeStart":201000001,"length":500000,"state":2,"copy":2.252},{"cell_id":"SA039-A108762A-R03-C05","chr":"01","genomeStart":201500001,"length":500000,"state":2,"copy":2.5994},{"cell_id":"SA039-A108762A-R03-C05","chr":"01","genomeStart":202000001,"length":500000,"state":2,"copy":1.9973},{"cell_id":"SA039-A108762A-R03-C05","chr":"01","genomeStart":202500001,"length":500000,"state":3,"copy":2.8615},{"cell_id":"SA039-A108762A-R03-C05","chr":"01","genomeStart":203000001,"length":500000,"state":3,"copy":2.7189},{"cell_id":"SA039-A108762A-R03-C05","chr":"01","genomeStart":203500001,"length":500000,"state":3,"copy":2.795},{"cell_id":"SA039-A108762A-R03-C05","chr":"01","genomeStart":204000001,"length":500000,"state":3,"copy":2.6474},{"cell_id":"SA039-A108762A-R03-C05","chr":"01","genomeStart":204500001,"length":500000,"state":3,"copy":2.7597},{"cell_id":"SA039-A108762A-R03-C05","chr":"01","genomeStart":205000001,"length":500000,"state":3,"copy":2.1201},{"cell_id":"SA039-A108762A-R03-C05","chr":"01","genomeStart":206500001,"length":500000,"state":3,"copy":2.4369},{"cell_id":"SA039-A108762A-R03-C05","chr":"01","genomeStart":207000001,"length":500000,"state":3,"copy":2.9564},{"cell_id":"SA039-A108762A-R03-C05","chr":"01","genomeStart":207500001,"length":500000,"state":3,"copy":2.9416},{"cell_id":"SA039-A108762A-R03-C05","chr":"01","genomeStart":208000001,"length":500000,"state":3,"copy":2.821},{"cell_id":"SA039-A108762A-R03-C05","chr":"01","genomeStart":208500001,"length":500000,"state":3,"copy":3.519},{"cell_id":"SA039-A108762A-R03-C05","chr":"01","genomeStart":209000001,"length":500000,"state":3,"copy":3.7685},{"cell_id":"SA039-A108762A-R03-C05","chr":"01","genomeStart":209500001,"length":500000,"state":3,"copy":2.9722},{"cell_id":"SA039-A108762A-R03-C05","chr":"01","genomeStart":210000001,"length":500000,"state":3,"copy":2.9126},{"cell_id":"SA039-A108762A-R03-C05","chr":"01","genomeStart":210500001,"length":500000,"state":3,"copy":3.3248},{"cell_id":"SA039-A108762A-R03-C05","chr":"01","genomeStart":211000001,"length":500000,"state":3,"copy":2.9916},{"cell_id":"SA039-A108762A-R03-C05","chr":"01","genomeStart":211500001,"length":500000,"state":3,"copy":2.0633},{"cell_id":"SA039-A108762A-R03-C05","chr":"01","genomeStart":212000001,"length":500000,"state":3,"copy":3.0252},{"cell_id":"SA039-A108762A-R03-C05","chr":"01","genomeStart":212500001,"length":500000,"state":3,"copy":2.5943},{"cell_id":"SA039-A108762A-R03-C05","chr":"01","genomeStart":213000001,"length":500000,"state":3,"copy":2.0188},{"cell_id":"SA039-A108762A-R03-C05","chr":"01","genomeStart":213500001,"length":500000,"state":3,"copy":2.6642},{"cell_id":"SA039-A108762A-R03-C05","chr":"01","genomeStart":214000001,"length":500000,"state":3,"copy":3.6719},{"cell_id":"SA039-A108762A-R03-C05","chr":"01","genomeStart":214500001,"length":500000,"state":3,"copy":3.175},{"cell_id":"SA039-A108762A-R03-C05","chr":"01","genomeStart":215000001,"length":500000,"state":3,"copy":4.0718},{"cell_id":"SA039-A108762A-R03-C05","chr":"01","genomeStart":215500001,"length":500000,"state":3,"copy":3.7703},{"cell_id":"SA039-A108762A-R03-C05","chr":"01","genomeStart":216000001,"length":500000,"state":2,"copy":2.2556},{"cell_id":"SA039-A108762A-R03-C05","chr":"01","genomeStart":216500001,"length":500000,"state":2,"copy":2.3257},{"cell_id":"SA039-A108762A-R03-C05","chr":"01","genomeStart":217000001,"length":500000,"state":2,"copy":1.3464},{"cell_id":"SA039-A108762A-R03-C05","chr":"01","genomeStart":217500001,"length":500000,"state":2,"copy":1.82},{"cell_id":"SA039-A108762A-R03-C05","chr":"01","genomeStart":218000001,"length":500000,"state":2,"copy":1.8036},{"cell_id":"SA039-A108762A-R03-C05","chr":"01","genomeStart":218500001,"length":500000,"state":2,"copy":1.8085},{"cell_id":"SA039-A108762A-R03-C05","chr":"01","genomeStart":219000001,"length":500000,"state":2,"copy":1.7211},{"cell_id":"SA039-A108762A-R03-C05","chr":"01","genomeStart":219500001,"length":500000,"state":2,"copy":1.7312},{"cell_id":"SA039-A108762A-R03-C05","chr":"01","genomeStart":220000001,"length":500000,"state":2,"copy":1.8025},{"cell_id":"SA039-A108762A-R03-C05","chr":"01","genomeStart":220500001,"length":500000,"state":2,"copy":1.2073},{"cell_id":"SA039-A108762A-R03-C05","chr":"01","genomeStart":221000001,"length":500000,"state":2,"copy":1.7508},{"cell_id":"SA039-A108762A-R03-C05","chr":"01","genomeStart":221500001,"length":500000,"state":2,"copy":2.0082},{"cell_id":"SA039-A108762A-R03-C05","chr":"01","genomeStart":222000001,"length":500000,"state":2,"copy":2.0723},{"cell_id":"SA039-A108762A-R03-C05","chr":"01","genomeStart":222500001,"length":500000,"state":3,"copy":2.8248},{"cell_id":"SA039-A108762A-R03-C05","chr":"01","genomeStart":223000001,"length":500000,"state":3,"copy":3.096},{"cell_id":"SA039-A108762A-R03-C05","chr":"01","genomeStart":224000001,"length":500000,"state":3,"copy":2.3453},{"cell_id":"SA039-A108762A-R03-C05","chr":"01","genomeStart":224500001,"length":500000,"state":3,"copy":2.6464},{"cell_id":"SA039-A108762A-R03-C05","chr":"01","genomeStart":225000001,"length":500000,"state":3,"copy":3.2814},{"cell_id":"SA039-A108762A-R03-C05","chr":"01","genomeStart":225500001,"length":500000,"state":2,"copy":1.9983},{"cell_id":"SA039-A108762A-R03-C05","chr":"01","genomeStart":226000001,"length":500000,"state":2,"copy":1.5554},{"cell_id":"SA039-A108762A-R03-C05","chr":"01","genomeStart":226500001,"length":500000,"state":2,"copy":1.8522},{"cell_id":"SA039-A108762A-R03-C05","chr":"01","genomeStart":227000001,"length":500000,"state":2,"copy":1.9733},{"cell_id":"SA039-A108762A-R03-C05","chr":"01","genomeStart":227500001,"length":500000,"state":2,"copy":2.1528},{"cell_id":"SA039-A108762A-R03-C05","chr":"01","genomeStart":228000001,"length":500000,"state":2,"copy":2.2464},{"cell_id":"SA039-A108762A-R03-C05","chr":"01","genomeStart":228500001,"length":500000,"state":2,"copy":1.5397},{"cell_id":"SA039-A108762A-R03-C05","chr":"01","genomeStart":229000001,"length":500000,"state":2,"copy":1.2454},{"cell_id":"SA039-A108762A-R03-C05","chr":"01","genomeStart":229500001,"length":500000,"state":2,"copy":1.6268},{"cell_id":"SA039-A108762A-R03-C05","chr":"01","genomeStart":230000001,"length":500000,"state":2,"copy":1.6911},{"cell_id":"SA039-A108762A-R03-C05","chr":"01","genomeStart":230500001,"length":500000,"state":2,"copy":1.6235},{"cell_id":"SA039-A108762A-R03-C05","chr":"01","genomeStart":231000001,"length":500000,"state":2,"copy":1.7459},{"cell_id":"SA039-A108762A-R03-C05","chr":"01","genomeStart":231500001,"length":500000,"state":2,"copy":1.5552},{"cell_id":"SA039-A108762A-R03-C05","chr":"01","genomeStart":232000001,"length":500000,"state":2,"copy":2.5624},{"cell_id":"SA039-A108762A-R03-C05","chr":"01","genomeStart":232500001,"length":500000,"state":2,"copy":2.506},{"cell_id":"SA039-A108762A-R03-C05","chr":"01","genomeStart":233000001,"length":500000,"state":2,"copy":2.3888},{"cell_id":"SA039-A108762A-R03-C05","chr":"01","genomeStart":233500001,"length":500000,"state":3,"copy":3.1086},{"cell_id":"SA039-A108762A-R03-C05","chr":"01","genomeStart":234000001,"length":500000,"state":3,"copy":3.2117},{"cell_id":"SA039-A108762A-R03-C05","chr":"01","genomeStart":234500001,"length":500000,"state":3,"copy":2.8032},{"cell_id":"SA039-A108762A-R03-C05","chr":"01","genomeStart":235500001,"length":500000,"state":3,"copy":2.6004},{"cell_id":"SA039-A108762A-R03-C05","chr":"01","genomeStart":236000001,"length":500000,"state":2,"copy":1.966},{"cell_id":"SA039-A108762A-R03-C05","chr":"01","genomeStart":236500001,"length":500000,"state":2,"copy":1.8586},{"cell_id":"SA039-A108762A-R03-C05","chr":"01","genomeStart":237000001,"length":500000,"state":2,"copy":1.3656},{"cell_id":"SA039-A108762A-R03-C05","chr":"01","genomeStart":237500001,"length":500000,"state":2,"copy":1.9779},{"cell_id":"SA039-A108762A-R03-C05","chr":"01","genomeStart":238000001,"length":500000,"state":2,"copy":1.916},{"cell_id":"SA039-A108762A-R03-C05","chr":"01","genomeStart":238500001,"length":500000,"state":2,"copy":1.6346},{"cell_id":"SA039-A108762A-R03-C05","chr":"01","genomeStart":239000001,"length":500000,"state":2,"copy":2.0084},{"cell_id":"SA039-A108762A-R03-C05","chr":"01","genomeStart":239500001,"length":500000,"state":2,"copy":1.239},{"cell_id":"SA039-A108762A-R03-C05","chr":"01","genomeStart":240000001,"length":500000,"state":2,"copy":1.9567},{"cell_id":"SA039-A108762A-R03-C05","chr":"01","genomeStart":240500001,"length":500000,"state":2,"copy":1.6822},{"cell_id":"SA039-A108762A-R03-C05","chr":"01","genomeStart":241000001,"length":500000,"state":2,"copy":1.8883},{"cell_id":"SA039-A108762A-R03-C05","chr":"01","genomeStart":241500001,"length":500000,"state":2,"copy":2.0707},{"cell_id":"SA039-A108762A-R03-C05","chr":"01","genomeStart":242000001,"length":500000,"state":2,"copy":1.856},{"cell_id":"SA039-A108762A-R03-C05","chr":"01","genomeStart":242500001,"length":500000,"state":2,"copy":1.9586},{"cell_id":"SA039-A108762A-R03-C05","chr":"01","genomeStart":243000001,"length":500000,"state":2,"copy":1.9503},{"cell_id":"SA039-A108762A-R03-C05","chr":"01","genomeStart":243500001,"length":500000,"state":2,"copy":1.8171},{"cell_id":"SA039-A108762A-R03-C05","chr":"01","genomeStart":244000001,"length":500000,"state":2,"copy":1.501},{"cell_id":"SA039-A108762A-R03-C05","chr":"01","genomeStart":244500001,"length":500000,"state":2,"copy":1.4134},{"cell_id":"SA039-A108762A-R03-C05","chr":"01","genomeStart":245000001,"length":500000,"state":2,"copy":1.3835},{"cell_id":"SA039-A108762A-R03-C05","chr":"01","genomeStart":245500001,"length":500000,"state":2,"copy":1.2808},{"cell_id":"SA039-A108762A-R03-C05","chr":"01","genomeStart":246000001,"length":500000,"state":2,"copy":1.5551},{"cell_id":"SA039-A108762A-R03-C05","chr":"01","genomeStart":246500001,"length":500000,"state":2,"copy":1.5038},{"cell_id":"SA039-A108762A-R03-C05","chr":"01","genomeStart":247000001,"length":500000,"state":2,"copy":1.3175},{"cell_id":"SA039-A108762A-R03-C05","chr":"01","genomeStart":247500001,"length":500000,"state":2,"copy":1.4084},{"cell_id":"SA039-A108762A-R03-C05","chr":"01","genomeStart":248000001,"length":500000,"state":2,"copy":2.2574},{"cell_id":"SA039-A108762A-R03-C05","chr":"10","genomeStart":1683500001,"length":500000,"state":2,"copy":2.2651},{"cell_id":"SA039-A108762A-R03-C05","chr":"10","genomeStart":1684000001,"length":500000,"state":2,"copy":2.5994},{"cell_id":"SA039-A108762A-R03-C05","chr":"10","genomeStart":1684500001,"length":500000,"state":2,"copy":2.2358},{"cell_id":"SA039-A108762A-R03-C05","chr":"10","genomeStart":1685000001,"length":500000,"state":2,"copy":2.414},{"cell_id":"SA039-A108762A-R03-C05","chr":"10","genomeStart":1685500001,"length":500000,"state":2,"copy":1.7898},{"cell_id":"SA039-A108762A-R03-C05","chr":"10","genomeStart":1686000001,"length":500000,"state":2,"copy":1.2475},{"cell_id":"SA039-A108762A-R03-C05","chr":"10","genomeStart":1686500001,"length":500000,"state":2,"copy":2.0116},{"cell_id":"SA039-A108762A-R03-C05","chr":"10","genomeStart":1687000001,"length":500000,"state":3,"copy":2.7682},{"cell_id":"SA039-A108762A-R03-C05","chr":"10","genomeStart":1687500001,"length":500000,"state":3,"copy":3.8143},{"cell_id":"SA039-A108762A-R03-C05","chr":"10","genomeStart":1688000001,"length":500000,"state":3,"copy":3.3391},{"cell_id":"SA039-A108762A-R03-C05","chr":"10","genomeStart":1688500001,"length":500000,"state":3,"copy":2.4132},{"cell_id":"SA039-A108762A-R03-C05","chr":"10","genomeStart":1689000001,"length":500000,"state":3,"copy":2.9106},{"cell_id":"SA039-A108762A-R03-C05","chr":"10","genomeStart":1689500001,"length":500000,"state":3,"copy":2.5958},{"cell_id":"SA039-A108762A-R03-C05","chr":"10","genomeStart":1690000001,"length":500000,"state":2,"copy":1.4304},{"cell_id":"SA039-A108762A-R03-C05","chr":"10","genomeStart":1690500001,"length":500000,"state":2,"copy":1.3941},{"cell_id":"SA039-A108762A-R03-C05","chr":"10","genomeStart":1691000001,"length":500000,"state":2,"copy":1.6767},{"cell_id":"SA039-A108762A-R03-C05","chr":"10","genomeStart":1691500001,"length":500000,"state":2,"copy":2.2381},{"cell_id":"SA039-A108762A-R03-C05","chr":"10","genomeStart":1692000001,"length":500000,"state":2,"copy":1.6786},{"cell_id":"SA039-A108762A-R03-C05","chr":"10","genomeStart":1692500001,"length":500000,"state":2,"copy":2.3305},{"cell_id":"SA039-A108762A-R03-C05","chr":"10","genomeStart":1693000001,"length":500000,"state":2,"copy":1.6397},{"cell_id":"SA039-A108762A-R03-C05","chr":"10","genomeStart":1693500001,"length":500000,"state":3,"copy":3.0541},{"cell_id":"SA039-A108762A-R03-C05","chr":"10","genomeStart":1694000001,"length":500000,"state":3,"copy":2.4053},{"cell_id":"SA039-A108762A-R03-C05","chr":"10","genomeStart":1694500001,"length":500000,"state":3,"copy":2.7027},{"cell_id":"SA039-A108762A-R03-C05","chr":"10","genomeStart":1695000001,"length":500000,"state":3,"copy":2.7084},{"cell_id":"SA039-A108762A-R03-C05","chr":"10","genomeStart":1695500001,"length":500000,"state":3,"copy":2.8266},{"cell_id":"SA039-A108762A-R03-C05","chr":"10","genomeStart":1696000001,"length":500000,"state":3,"copy":2.6082},{"cell_id":"SA039-A108762A-R03-C05","chr":"10","genomeStart":1696500001,"length":500000,"state":2,"copy":2.2989},{"cell_id":"SA039-A108762A-R03-C05","chr":"10","genomeStart":1697000001,"length":500000,"state":2,"copy":2.1014},{"cell_id":"SA039-A108762A-R03-C05","chr":"10","genomeStart":1697500001,"length":500000,"state":2,"copy":1.6828},{"cell_id":"SA039-A108762A-R03-C05","chr":"10","genomeStart":1698000001,"length":500000,"state":2,"copy":1.2213},{"cell_id":"SA039-A108762A-R03-C05","chr":"10","genomeStart":1698500001,"length":500000,"state":2,"copy":1.689},{"cell_id":"SA039-A108762A-R03-C05","chr":"10","genomeStart":1699000001,"length":500000,"state":2,"copy":1.76},{"cell_id":"SA039-A108762A-R03-C05","chr":"10","genomeStart":1699500001,"length":500000,"state":2,"copy":1.208},{"cell_id":"SA039-A108762A-R03-C05","chr":"10","genomeStart":1700000001,"length":500000,"state":2,"copy":1.3473},{"cell_id":"SA039-A108762A-R03-C05","chr":"10","genomeStart":1701500001,"length":500000,"state":2,"copy":1.4367},{"cell_id":"SA039-A108762A-R03-C05","chr":"10","genomeStart":1702000001,"length":500000,"state":2,"copy":1.6648},{"cell_id":"SA039-A108762A-R03-C05","chr":"10","genomeStart":1702500001,"length":500000,"state":2,"copy":1.6714},{"cell_id":"SA039-A108762A-R03-C05","chr":"10","genomeStart":1703000001,"length":500000,"state":2,"copy":1.8801},{"cell_id":"SA039-A108762A-R03-C05","chr":"10","genomeStart":1703500001,"length":500000,"state":2,"copy":2.1643},{"cell_id":"SA039-A108762A-R03-C05","chr":"10","genomeStart":1704000001,"length":500000,"state":2,"copy":1.6555},{"cell_id":"SA039-A108762A-R03-C05","chr":"10","genomeStart":1704500001,"length":500000,"state":2,"copy":1.639},{"cell_id":"SA039-A108762A-R03-C05","chr":"10","genomeStart":1705000001,"length":500000,"state":2,"copy":1.9663},{"cell_id":"SA039-A108762A-R03-C05","chr":"10","genomeStart":1705500001,"length":500000,"state":2,"copy":1.7483},{"cell_id":"SA039-A108762A-R03-C05","chr":"10","genomeStart":1706000001,"length":500000,"state":2,"copy":1.7116},{"cell_id":"SA039-A108762A-R03-C05","chr":"10","genomeStart":1706500001,"length":500000,"state":2,"copy":2.314},{"cell_id":"SA039-A108762A-R03-C05","chr":"10","genomeStart":1707000001,"length":500000,"state":2,"copy":2.6634},{"cell_id":"SA039-A108762A-R03-C05","chr":"10","genomeStart":1707500001,"length":500000,"state":2,"copy":2.078},{"cell_id":"SA039-A108762A-R03-C05","chr":"10","genomeStart":1708000001,"length":500000,"state":2,"copy":2.6546},{"cell_id":"SA039-A108762A-R03-C05","chr":"10","genomeStart":1708500001,"length":500000,"state":2,"copy":2.728},{"cell_id":"SA039-A108762A-R03-C05","chr":"10","genomeStart":1709000001,"length":500000,"state":2,"copy":1.6474},{"cell_id":"SA039-A108762A-R03-C05","chr":"10","genomeStart":1709500001,"length":500000,"state":2,"copy":1.494},{"cell_id":"SA039-A108762A-R03-C05","chr":"10","genomeStart":1710000001,"length":500000,"state":2,"copy":1.7428},{"cell_id":"SA039-A108762A-R03-C05","chr":"10","genomeStart":1710500001,"length":500000,"state":2,"copy":2.2563},{"cell_id":"SA039-A108762A-R03-C05","chr":"10","genomeStart":1711000001,"length":500000,"state":2,"copy":1.8489},{"cell_id":"SA039-A108762A-R03-C05","chr":"10","genomeStart":1711500001,"length":500000,"state":2,"copy":1.5517},{"cell_id":"SA039-A108762A-R03-C05","chr":"10","genomeStart":1712000001,"length":500000,"state":2,"copy":1.4822},{"cell_id":"SA039-A108762A-R03-C05","chr":"10","genomeStart":1712500001,"length":500000,"state":2,"copy":1.4597},{"cell_id":"SA039-A108762A-R03-C05","chr":"10","genomeStart":1713000001,"length":500000,"state":2,"copy":1.5085},{"cell_id":"SA039-A108762A-R03-C05","chr":"10","genomeStart":1713500001,"length":500000,"state":2,"copy":1.2482},{"cell_id":"SA039-A108762A-R03-C05","chr":"10","genomeStart":1714000001,"length":500000,"state":2,"copy":1.3246},{"cell_id":"SA039-A108762A-R03-C05","chr":"10","genomeStart":1714500001,"length":500000,"state":2,"copy":2.4966},{"cell_id":"SA039-A108762A-R03-C05","chr":"10","genomeStart":1715000001,"length":500000,"state":2,"copy":2.4648},{"cell_id":"SA039-A108762A-R03-C05","chr":"10","genomeStart":1715500001,"length":500000,"state":3,"copy":3.4498},{"cell_id":"SA039-A108762A-R03-C05","chr":"10","genomeStart":1716000001,"length":500000,"state":3,"copy":2.7597},{"cell_id":"SA039-A108762A-R03-C05","chr":"10","genomeStart":1716500001,"length":500000,"state":3,"copy":2.9318},{"cell_id":"SA039-A108762A-R03-C05","chr":"10","genomeStart":1717000001,"length":500000,"state":3,"copy":2.4617},{"cell_id":"SA039-A108762A-R03-C05","chr":"10","genomeStart":1717500001,"length":500000,"state":3,"copy":3.4817},{"cell_id":"SA039-A108762A-R03-C05","chr":"10","genomeStart":1718000001,"length":500000,"state":3,"copy":2.8279},{"cell_id":"SA039-A108762A-R03-C05","chr":"10","genomeStart":1718500001,"length":500000,"state":3,"copy":2.7975},{"cell_id":"SA039-A108762A-R03-C05","chr":"10","genomeStart":1719000001,"length":500000,"state":2,"copy":2.1318},{"cell_id":"SA039-A108762A-R03-C05","chr":"10","genomeStart":1719500001,"length":500000,"state":2,"copy":1.7165},{"cell_id":"SA039-A108762A-R03-C05","chr":"10","genomeStart":1720500001,"length":500000,"state":1,"copy":1.2537},{"cell_id":"SA039-A108762A-R03-C05","chr":"10","genomeStart":1721000001,"length":500000,"state":1,"copy":1.1429},{"cell_id":"SA039-A108762A-R03-C05","chr":"10","genomeStart":1726000001,"length":500000,"state":1,"copy":0.3057},{"cell_id":"SA039-A108762A-R03-C05","chr":"10","genomeStart":1726500001,"length":500000,"state":1,"copy":1.146},{"cell_id":"SA039-A108762A-R03-C05","chr":"10","genomeStart":1727000001,"length":500000,"state":1,"copy":1.6279},{"cell_id":"SA039-A108762A-R03-C05","chr":"10","genomeStart":1727500001,"length":500000,"state":1,"copy":1.2234},{"cell_id":"SA039-A108762A-R03-C05","chr":"10","genomeStart":1728000001,"length":500000,"state":1,"copy":1.3479},{"cell_id":"SA039-A108762A-R03-C05","chr":"10","genomeStart":1728500001,"length":500000,"state":1,"copy":1.3898},{"cell_id":"SA039-A108762A-R03-C05","chr":"10","genomeStart":1729500001,"length":500000,"state":1,"copy":0.548},{"cell_id":"SA039-A108762A-R03-C05","chr":"10","genomeStart":1731500001,"length":500000,"state":1,"copy":1.1534},{"cell_id":"SA039-A108762A-R03-C05","chr":"10","genomeStart":1732500001,"length":500000,"state":1,"copy":1.2628},{"cell_id":"SA039-A108762A-R03-C05","chr":"10","genomeStart":1733000001,"length":500000,"state":2,"copy":2.0213},{"cell_id":"SA039-A108762A-R03-C05","chr":"10","genomeStart":1733500001,"length":500000,"state":2,"copy":1.6952},{"cell_id":"SA039-A108762A-R03-C05","chr":"10","genomeStart":1734500001,"length":500000,"state":2,"copy":0.7798},{"cell_id":"SA039-A108762A-R03-C05","chr":"10","genomeStart":1735000001,"length":500000,"state":2,"copy":1.9609},{"cell_id":"SA039-A108762A-R03-C05","chr":"10","genomeStart":1735500001,"length":500000,"state":2,"copy":1.0622},{"cell_id":"SA039-A108762A-R03-C05","chr":"10","genomeStart":1736000001,"length":500000,"state":2,"copy":2.0687},{"cell_id":"SA039-A108762A-R03-C05","chr":"10","genomeStart":1736500001,"length":500000,"state":2,"copy":2.3948},{"cell_id":"SA039-A108762A-R03-C05","chr":"10","genomeStart":1737000001,"length":500000,"state":2,"copy":1.7272},{"cell_id":"SA039-A108762A-R03-C05","chr":"10","genomeStart":1738000001,"length":500000,"state":2,"copy":2.6165},{"cell_id":"SA039-A108762A-R03-C05","chr":"10","genomeStart":1738500001,"length":500000,"state":2,"copy":2.0407},{"cell_id":"SA039-A108762A-R03-C05","chr":"10","genomeStart":1739000001,"length":500000,"state":2,"copy":1.8416},{"cell_id":"SA039-A108762A-R03-C05","chr":"10","genomeStart":1739500001,"length":500000,"state":2,"copy":2.1904},{"cell_id":"SA039-A108762A-R03-C05","chr":"10","genomeStart":1740000001,"length":500000,"state":2,"copy":2.6108},{"cell_id":"SA039-A108762A-R03-C05","chr":"10","genomeStart":1740500001,"length":500000,"state":2,"copy":2.0927},{"cell_id":"SA039-A108762A-R03-C05","chr":"10","genomeStart":1741000001,"length":500000,"state":2,"copy":2.7711},{"cell_id":"SA039-A108762A-R03-C05","chr":"10","genomeStart":1741500001,"length":500000,"state":2,"copy":2.1321},{"cell_id":"SA039-A108762A-R03-C05","chr":"10","genomeStart":1742000001,"length":500000,"state":2,"copy":2.2248},{"cell_id":"SA039-A108762A-R03-C05","chr":"10","genomeStart":1742500001,"length":500000,"state":2,"copy":2.105},{"cell_id":"SA039-A108762A-R03-C05","chr":"10","genomeStart":1743500001,"length":500000,"state":2,"copy":1.6608},{"cell_id":"SA039-A108762A-R03-C05","chr":"10","genomeStart":1744500001,"length":500000,"state":2,"copy":1.4299},{"cell_id":"SA039-A108762A-R03-C05","chr":"10","genomeStart":1745000001,"length":500000,"state":2,"copy":2.7029},{"cell_id":"SA039-A108762A-R03-C05","chr":"10","genomeStart":1745500001,"length":500000,"state":2,"copy":2.806},{"cell_id":"SA039-A108762A-R03-C05","chr":"10","genomeStart":1746000001,"length":500000,"state":2,"copy":1.6862},{"cell_id":"SA039-A108762A-R03-C05","chr":"10","genomeStart":1746500001,"length":500000,"state":2,"copy":1.8069},{"cell_id":"SA039-A108762A-R03-C05","chr":"10","genomeStart":1747500001,"length":500000,"state":3,"copy":2.5662},{"cell_id":"SA039-A108762A-R03-C05","chr":"10","genomeStart":1748000001,"length":500000,"state":3,"copy":2.6234},{"cell_id":"SA039-A108762A-R03-C05","chr":"10","genomeStart":1748500001,"length":500000,"state":3,"copy":2.7913},{"cell_id":"SA039-A108762A-R03-C05","chr":"10","genomeStart":1749000001,"length":500000,"state":3,"copy":2.926},{"cell_id":"SA039-A108762A-R03-C05","chr":"10","genomeStart":1749500001,"length":500000,"state":3,"copy":2.1515},{"cell_id":"SA039-A108762A-R03-C05","chr":"10","genomeStart":1750000001,"length":500000,"state":3,"copy":1.9451},{"cell_id":"SA039-A108762A-R03-C05","chr":"10","genomeStart":1750500001,"length":500000,"state":3,"copy":2.5892},{"cell_id":"SA039-A108762A-R03-C05","chr":"10","genomeStart":1751000001,"length":500000,"state":3,"copy":3.5363},{"cell_id":"SA039-A108762A-R03-C05","chr":"10","genomeStart":1751500001,"length":500000,"state":3,"copy":3.0907},{"cell_id":"SA039-A108762A-R03-C05","chr":"10","genomeStart":1752000001,"length":500000,"state":3,"copy":3.6398},{"cell_id":"SA039-A108762A-R03-C05","chr":"10","genomeStart":1752500001,"length":500000,"state":3,"copy":2.8789},{"cell_id":"SA039-A108762A-R03-C05","chr":"10","genomeStart":1753000001,"length":500000,"state":3,"copy":2.4924},{"cell_id":"SA039-A108762A-R03-C05","chr":"10","genomeStart":1753500001,"length":500000,"state":3,"copy":2.3576},{"cell_id":"SA039-A108762A-R03-C05","chr":"10","genomeStart":1754000001,"length":500000,"state":3,"copy":2.7056},{"cell_id":"SA039-A108762A-R03-C05","chr":"10","genomeStart":1754500001,"length":500000,"state":2,"copy":2.0007},{"cell_id":"SA039-A108762A-R03-C05","chr":"10","genomeStart":1755000001,"length":500000,"state":2,"copy":1.9748},{"cell_id":"SA039-A108762A-R03-C05","chr":"10","genomeStart":1755500001,"length":500000,"state":2,"copy":1.4651},{"cell_id":"SA039-A108762A-R03-C05","chr":"10","genomeStart":1756000001,"length":500000,"state":2,"copy":1.91},{"cell_id":"SA039-A108762A-R03-C05","chr":"10","genomeStart":1756500001,"length":500000,"state":2,"copy":2.2643},{"cell_id":"SA039-A108762A-R03-C05","chr":"10","genomeStart":1757000001,"length":500000,"state":3,"copy":2.8247},{"cell_id":"SA039-A108762A-R03-C05","chr":"10","genomeStart":1757500001,"length":500000,"state":3,"copy":3.5095},{"cell_id":"SA039-A108762A-R03-C05","chr":"10","genomeStart":1758000001,"length":500000,"state":3,"copy":3.0492},{"cell_id":"SA039-A108762A-R03-C05","chr":"10","genomeStart":1758500001,"length":500000,"state":3,"copy":2.7648},{"cell_id":"SA039-A108762A-R03-C05","chr":"10","genomeStart":1759000001,"length":500000,"state":3,"copy":3.3337},{"cell_id":"SA039-A108762A-R03-C05","chr":"10","genomeStart":1759500001,"length":500000,"state":3,"copy":2.5832},{"cell_id":"SA039-A108762A-R03-C05","chr":"10","genomeStart":1760000001,"length":500000,"state":2,"copy":2.4321},{"cell_id":"SA039-A108762A-R03-C05","chr":"10","genomeStart":1760500001,"length":500000,"state":2,"copy":1.9511},{"cell_id":"SA039-A108762A-R03-C05","chr":"10","genomeStart":1761000001,"length":500000,"state":2,"copy":2.051},{"cell_id":"SA039-A108762A-R03-C05","chr":"10","genomeStart":1761500001,"length":500000,"state":2,"copy":2.5845},{"cell_id":"SA039-A108762A-R03-C05","chr":"10","genomeStart":1762000001,"length":500000,"state":2,"copy":2.6462},{"cell_id":"SA039-A108762A-R03-C05","chr":"10","genomeStart":1762500001,"length":500000,"state":2,"copy":2.0316},{"cell_id":"SA039-A108762A-R03-C05","chr":"10","genomeStart":1763000001,"length":500000,"state":2,"copy":2.223},{"cell_id":"SA039-A108762A-R03-C05","chr":"10","genomeStart":1763500001,"length":500000,"state":2,"copy":2.2202},{"cell_id":"SA039-A108762A-R03-C05","chr":"10","genomeStart":1764000001,"length":500000,"state":3,"copy":2.6093},{"cell_id":"SA039-A108762A-R03-C05","chr":"10","genomeStart":1764500001,"length":500000,"state":3,"copy":2.6954},{"cell_id":"SA039-A108762A-R03-C05","chr":"10","genomeStart":1765000001,"length":500000,"state":3,"copy":2.8932},{"cell_id":"SA039-A108762A-R03-C05","chr":"10","genomeStart":1765500001,"length":500000,"state":3,"copy":3.6276},{"cell_id":"SA039-A108762A-R03-C05","chr":"10","genomeStart":1766000001,"length":500000,"state":3,"copy":3.2072},{"cell_id":"SA039-A108762A-R03-C05","chr":"10","genomeStart":1766500001,"length":500000,"state":2,"copy":2.0234},{"cell_id":"SA039-A108762A-R03-C05","chr":"10","genomeStart":1767000001,"length":500000,"state":2,"copy":2.027},{"cell_id":"SA039-A108762A-R03-C05","chr":"10","genomeStart":1767500001,"length":500000,"state":2,"copy":1.4128},{"cell_id":"SA039-A108762A-R03-C05","chr":"10","genomeStart":1768000001,"length":500000,"state":2,"copy":2.273},{"cell_id":"SA039-A108762A-R03-C05","chr":"10","genomeStart":1768500001,"length":500000,"state":3,"copy":2.6079},{"cell_id":"SA039-A108762A-R03-C05","chr":"10","genomeStart":1769000001,"length":500000,"state":3,"copy":3.1288},{"cell_id":"SA039-A108762A-R03-C05","chr":"10","genomeStart":1769500001,"length":500000,"state":3,"copy":2.8399},{"cell_id":"SA039-A108762A-R03-C05","chr":"10","genomeStart":1770000001,"length":500000,"state":3,"copy":2.9483},{"cell_id":"SA039-A108762A-R03-C05","chr":"10","genomeStart":1770500001,"length":500000,"state":3,"copy":2.6346},{"cell_id":"SA039-A108762A-R03-C05","chr":"10","genomeStart":1771000001,"length":500000,"state":3,"copy":2.6777},{"cell_id":"SA039-A108762A-R03-C05","chr":"10","genomeStart":1771500001,"length":500000,"state":3,"copy":2.7169},{"cell_id":"SA039-A108762A-R03-C05","chr":"10","genomeStart":1772000001,"length":500000,"state":3,"copy":2.6768},{"cell_id":"SA039-A108762A-R03-C05","chr":"10","genomeStart":1772500001,"length":500000,"state":3,"copy":3.0768},{"cell_id":"SA039-A108762A-R03-C05","chr":"10","genomeStart":1773000001,"length":500000,"state":3,"copy":3.3881},{"cell_id":"SA039-A108762A-R03-C05","chr":"10","genomeStart":1773500001,"length":500000,"state":2,"copy":1.8031},{"cell_id":"SA039-A108762A-R03-C05","chr":"10","genomeStart":1774000001,"length":500000,"state":2,"copy":1.7409},{"cell_id":"SA039-A108762A-R03-C05","chr":"10","genomeStart":1774500001,"length":500000,"state":2,"copy":1.3994},{"cell_id":"SA039-A108762A-R03-C05","chr":"10","genomeStart":1775000001,"length":500000,"state":2,"copy":2.7491},{"cell_id":"SA039-A108762A-R03-C05","chr":"10","genomeStart":1775500001,"length":500000,"state":2,"copy":1.9472},{"cell_id":"SA039-A108762A-R03-C05","chr":"10","genomeStart":1776000001,"length":500000,"state":2,"copy":2.0236},{"cell_id":"SA039-A108762A-R03-C05","chr":"10","genomeStart":1776500001,"length":500000,"state":2,"copy":2.8888},{"cell_id":"SA039-A108762A-R03-C05","chr":"10","genomeStart":1777000001,"length":500000,"state":2,"copy":2.5184},{"cell_id":"SA039-A108762A-R03-C05","chr":"10","genomeStart":1777500001,"length":500000,"state":2,"copy":2.9238},{"cell_id":"SA039-A108762A-R03-C05","chr":"10","genomeStart":1778000001,"length":500000,"state":2,"copy":2.068},{"cell_id":"SA039-A108762A-R03-C05","chr":"10","genomeStart":1778500001,"length":500000,"state":2,"copy":2.2261},{"cell_id":"SA039-A108762A-R03-C05","chr":"10","genomeStart":1779000001,"length":500000,"state":2,"copy":1.6927},{"cell_id":"SA039-A108762A-R03-C05","chr":"10","genomeStart":1779500001,"length":500000,"state":2,"copy":1.3964},{"cell_id":"SA039-A108762A-R03-C05","chr":"10","genomeStart":1780000001,"length":500000,"state":2,"copy":1.1372},{"cell_id":"SA039-A108762A-R03-C05","chr":"10","genomeStart":1780500001,"length":500000,"state":2,"copy":1.9478},{"cell_id":"SA039-A108762A-R03-C05","chr":"10","genomeStart":1781000001,"length":500000,"state":2,"copy":2.0421},{"cell_id":"SA039-A108762A-R03-C05","chr":"10","genomeStart":1781500001,"length":500000,"state":2,"copy":2.4546},{"cell_id":"SA039-A108762A-R03-C05","chr":"10","genomeStart":1782000001,"length":500000,"state":2,"copy":2.2151},{"cell_id":"SA039-A108762A-R03-C05","chr":"10","genomeStart":1782500001,"length":500000,"state":2,"copy":2.0409},{"cell_id":"SA039-A108762A-R03-C05","chr":"10","genomeStart":1783000001,"length":500000,"state":2,"copy":1.9905},{"cell_id":"SA039-A108762A-R03-C05","chr":"10","genomeStart":1783500001,"length":500000,"state":2,"copy":2.4607},{"cell_id":"SA039-A108762A-R03-C05","chr":"10","genomeStart":1784000001,"length":500000,"state":2,"copy":2.4072},{"cell_id":"SA039-A108762A-R03-C05","chr":"10","genomeStart":1784500001,"length":500000,"state":2,"copy":2.1774},{"cell_id":"SA039-A108762A-R03-C05","chr":"10","genomeStart":1785000001,"length":500000,"state":2,"copy":2.6201},{"cell_id":"SA039-A108762A-R03-C05","chr":"10","genomeStart":1785500001,"length":500000,"state":2,"copy":1.6931},{"cell_id":"SA039-A108762A-R03-C05","chr":"10","genomeStart":1786000001,"length":500000,"state":2,"copy":2.2857},{"cell_id":"SA039-A108762A-R03-C05","chr":"10","genomeStart":1786500001,"length":500000,"state":2,"copy":2.6872},{"cell_id":"SA039-A108762A-R03-C05","chr":"10","genomeStart":1787000001,"length":500000,"state":2,"copy":1.7881},{"cell_id":"SA039-A108762A-R03-C05","chr":"10","genomeStart":1787500001,"length":500000,"state":2,"copy":2.9651},{"cell_id":"SA039-A108762A-R03-C05","chr":"10","genomeStart":1788000001,"length":500000,"state":2,"copy":1.9421},{"cell_id":"SA039-A108762A-R03-C05","chr":"10","genomeStart":1788500001,"length":500000,"state":3,"copy":3.1428},{"cell_id":"SA039-A108762A-R03-C05","chr":"10","genomeStart":1789000001,"length":500000,"state":3,"copy":2.8057},{"cell_id":"SA039-A108762A-R03-C05","chr":"10","genomeStart":1789500001,"length":500000,"state":3,"copy":3.4425},{"cell_id":"SA039-A108762A-R03-C05","chr":"10","genomeStart":1790000001,"length":500000,"state":3,"copy":2.835},{"cell_id":"SA039-A108762A-R03-C05","chr":"10","genomeStart":1790500001,"length":500000,"state":3,"copy":1.9542},{"cell_id":"SA039-A108762A-R03-C05","chr":"10","genomeStart":1791000001,"length":500000,"state":3,"copy":3.2764},{"cell_id":"SA039-A108762A-R03-C05","chr":"10","genomeStart":1791500001,"length":500000,"state":2,"copy":1.8595},{"cell_id":"SA039-A108762A-R03-C05","chr":"10","genomeStart":1792000001,"length":500000,"state":2,"copy":2.5989},{"cell_id":"SA039-A108762A-R03-C05","chr":"10","genomeStart":1792500001,"length":500000,"state":2,"copy":2.2459},{"cell_id":"SA039-A108762A-R03-C05","chr":"10","genomeStart":1793000001,"length":500000,"state":2,"copy":1.7575},{"cell_id":"SA039-A108762A-R03-C05","chr":"10","genomeStart":1793500001,"length":500000,"state":2,"copy":2.168},{"cell_id":"SA039-A108762A-R03-C05","chr":"10","genomeStart":1794000001,"length":500000,"state":3,"copy":3.5574},{"cell_id":"SA039-A108762A-R03-C05","chr":"10","genomeStart":1794500001,"length":500000,"state":3,"copy":3.2238},{"cell_id":"SA039-A108762A-R03-C05","chr":"10","genomeStart":1795000001,"length":500000,"state":3,"copy":2.8814},{"cell_id":"SA039-A108762A-R03-C05","chr":"10","genomeStart":1795500001,"length":500000,"state":3,"copy":2.907},{"cell_id":"SA039-A108762A-R03-C05","chr":"10","genomeStart":1796000001,"length":500000,"state":3,"copy":3.3551},{"cell_id":"SA039-A108762A-R03-C05","chr":"10","genomeStart":1796500001,"length":500000,"state":3,"copy":2.0191},{"cell_id":"SA039-A108762A-R03-C05","chr":"10","genomeStart":1797000001,"length":500000,"state":3,"copy":2.44},{"cell_id":"SA039-A108762A-R03-C05","chr":"10","genomeStart":1797500001,"length":500000,"state":3,"copy":2.6707},{"cell_id":"SA039-A108762A-R03-C05","chr":"10","genomeStart":1798000001,"length":500000,"state":3,"copy":2.7684},{"cell_id":"SA039-A108762A-R03-C05","chr":"10","genomeStart":1798500001,"length":500000,"state":3,"copy":2.9734},{"cell_id":"SA039-A108762A-R03-C05","chr":"10","genomeStart":1799500001,"length":500000,"state":3,"copy":3.0686},{"cell_id":"SA039-A108762A-R03-C05","chr":"10","genomeStart":1800000001,"length":500000,"state":3,"copy":3.0279},{"cell_id":"SA039-A108762A-R03-C05","chr":"10","genomeStart":1800500001,"length":500000,"state":2,"copy":1.6669},{"cell_id":"SA039-A108762A-R03-C05","chr":"10","genomeStart":1801000001,"length":500000,"state":2,"copy":1.4218},{"cell_id":"SA039-A108762A-R03-C05","chr":"10","genomeStart":1801500001,"length":500000,"state":2,"copy":1.649},{"cell_id":"SA039-A108762A-R03-C05","chr":"10","genomeStart":1802000001,"length":500000,"state":2,"copy":1.3436},{"cell_id":"SA039-A108762A-R03-C05","chr":"10","genomeStart":1802500001,"length":500000,"state":2,"copy":2.5622},{"cell_id":"SA039-A108762A-R03-C05","chr":"10","genomeStart":1803000001,"length":500000,"state":2,"copy":2.5486},{"cell_id":"SA039-A108762A-R03-C05","chr":"10","genomeStart":1803500001,"length":500000,"state":2,"copy":2.5404},{"cell_id":"SA039-A108762A-R03-C05","chr":"10","genomeStart":1804000001,"length":500000,"state":2,"copy":2.0134},{"cell_id":"SA039-A108762A-R03-C05","chr":"10","genomeStart":1804500001,"length":500000,"state":2,"copy":2.2163},{"cell_id":"SA039-A108762A-R03-C05","chr":"10","genomeStart":1805000001,"length":500000,"state":2,"copy":2.2477},{"cell_id":"SA039-A108762A-R03-C05","chr":"10","genomeStart":1805500001,"length":500000,"state":2,"copy":3.3109},{"cell_id":"SA039-A108762A-R03-C05","chr":"10","genomeStart":1806000001,"length":500000,"state":2,"copy":2.8039},{"cell_id":"SA039-A108762A-R03-C05","chr":"10","genomeStart":1806500001,"length":500000,"state":2,"copy":2.3459},{"cell_id":"SA039-A108762A-R03-C05","chr":"10","genomeStart":1807000001,"length":500000,"state":2,"copy":2.0976},{"cell_id":"SA039-A108762A-R03-C05","chr":"10","genomeStart":1807500001,"length":500000,"state":2,"copy":2.8365},{"cell_id":"SA039-A108762A-R03-C05","chr":"10","genomeStart":1808000001,"length":500000,"state":2,"copy":2.0874},{"cell_id":"SA039-A108762A-R03-C05","chr":"10","genomeStart":1809000001,"length":500000,"state":1,"copy":1.2918},{"cell_id":"SA039-A108762A-R03-C05","chr":"10","genomeStart":1809500001,"length":500000,"state":1,"copy":1.2535},{"cell_id":"SA039-A108762A-R03-C05","chr":"10","genomeStart":1810000001,"length":500000,"state":1,"copy":1.2976},{"cell_id":"SA039-A108762A-R03-C05","chr":"10","genomeStart":1810500001,"length":500000,"state":1,"copy":1.0602},{"cell_id":"SA039-A108762A-R03-C05","chr":"10","genomeStart":1811000001,"length":500000,"state":1,"copy":1.3663},{"cell_id":"SA039-A108762A-R03-C05","chr":"10","genomeStart":1812000001,"length":500000,"state":1,"copy":1.3149},{"cell_id":"SA039-A108762A-R03-C05","chr":"10","genomeStart":1812500001,"length":500000,"state":1,"copy":1.1377},{"cell_id":"SA039-A108762A-R03-C05","chr":"10","genomeStart":1813000001,"length":500000,"state":1,"copy":1.4557},{"cell_id":"SA039-A108762A-R03-C05","chr":"10","genomeStart":1813500001,"length":500000,"state":1,"copy":1.2992},{"cell_id":"SA039-A108762A-R03-C05","chr":"10","genomeStart":1814000001,"length":500000,"state":1,"copy":1.3578},{"cell_id":"SA039-A108762A-R03-C05","chr":"10","genomeStart":1814500001,"length":500000,"state":1,"copy":1.3538},{"cell_id":"SA039-A108762A-R03-C05","chr":"10","genomeStart":1815000001,"length":500000,"state":1,"copy":1.1108},{"cell_id":"SA039-A108762A-R03-C05","chr":"10","genomeStart":1815500001,"length":500000,"state":1,"copy":1.3602},{"cell_id":"SA039-A108762A-R03-C05","chr":"10","genomeStart":1817000001,"length":500000,"state":1,"copy":1.2446},{"cell_id":"SA039-A108762A-R03-C05","chr":"10","genomeStart":1817500001,"length":500000,"state":1,"copy":1.1634},{"cell_id":"SA039-A108762A-R03-C05","chr":"10","genomeStart":1818000001,"length":500000,"state":1,"copy":1.0801},{"cell_id":"SA039-A108762A-R03-C05","chr":"11","genomeStart":1819500001,"length":500000,"state":2,"copy":2.3409},{"cell_id":"SA039-A108762A-R03-C05","chr":"11","genomeStart":1820500001,"length":500000,"state":2,"copy":1.7969},{"cell_id":"SA039-A108762A-R03-C05","chr":"11","genomeStart":1821000001,"length":500000,"state":2,"copy":1.8374},{"cell_id":"SA039-A108762A-R03-C05","chr":"11","genomeStart":1821500001,"length":500000,"state":2,"copy":1.9012},{"cell_id":"SA039-A108762A-R03-C05","chr":"11","genomeStart":1822000001,"length":500000,"state":2,"copy":2.0826},{"cell_id":"SA039-A108762A-R03-C05","chr":"11","genomeStart":1822500001,"length":500000,"state":2,"copy":1.8084},{"cell_id":"SA039-A108762A-R03-C05","chr":"11","genomeStart":1823000001,"length":500000,"state":2,"copy":2.5134},{"cell_id":"SA039-A108762A-R03-C05","chr":"11","genomeStart":1823500001,"length":500000,"state":2,"copy":2.9857},{"cell_id":"SA039-A108762A-R03-C05","chr":"11","genomeStart":1824000001,"length":500000,"state":2,"copy":2.032},{"cell_id":"SA039-A108762A-R03-C05","chr":"11","genomeStart":1824500001,"length":500000,"state":2,"copy":2.1006},{"cell_id":"SA039-A108762A-R03-C05","chr":"11","genomeStart":1825000001,"length":500000,"state":2,"copy":1.543},{"cell_id":"SA039-A108762A-R03-C05","chr":"11","genomeStart":1825500001,"length":500000,"state":2,"copy":1.6936},{"cell_id":"SA039-A108762A-R03-C05","chr":"11","genomeStart":1826000001,"length":500000,"state":2,"copy":1.7027},{"cell_id":"SA039-A108762A-R03-C05","chr":"11","genomeStart":1826500001,"length":500000,"state":2,"copy":1.6732},{"cell_id":"SA039-A108762A-R03-C05","chr":"11","genomeStart":1827000001,"length":500000,"state":3,"copy":2.6061},{"cell_id":"SA039-A108762A-R03-C05","chr":"11","genomeStart":1827500001,"length":500000,"state":3,"copy":2.8461},{"cell_id":"SA039-A108762A-R03-C05","chr":"11","genomeStart":1828000001,"length":500000,"state":3,"copy":2.7681},{"cell_id":"SA039-A108762A-R03-C05","chr":"11","genomeStart":1828500001,"length":500000,"state":3,"copy":2.5796},{"cell_id":"SA039-A108762A-R03-C05","chr":"11","genomeStart":1829000001,"length":500000,"state":3,"copy":2.6564},{"cell_id":"SA039-A108762A-R03-C05","chr":"11","genomeStart":1829500001,"length":500000,"state":3,"copy":2.6605},{"cell_id":"SA039-A108762A-R03-C05","chr":"11","genomeStart":1830000001,"length":500000,"state":3,"copy":2.5591},{"cell_id":"SA039-A108762A-R03-C05","chr":"11","genomeStart":1830500001,"length":500000,"state":3,"copy":3.0984},{"cell_id":"SA039-A108762A-R03-C05","chr":"11","genomeStart":1831000001,"length":500000,"state":3,"copy":2.795},{"cell_id":"SA039-A108762A-R03-C05","chr":"11","genomeStart":1831500001,"length":500000,"state":3,"copy":2.7183},{"cell_id":"SA039-A108762A-R03-C05","chr":"11","genomeStart":1832000001,"length":500000,"state":3,"copy":3.1443},{"cell_id":"SA039-A108762A-R03-C05","chr":"11","genomeStart":1832500001,"length":500000,"state":3,"copy":3.4321},{"cell_id":"SA039-A108762A-R03-C05","chr":"11","genomeStart":1833000001,"length":500000,"state":3,"copy":2.5625},{"cell_id":"SA039-A108762A-R03-C05","chr":"11","genomeStart":1833500001,"length":500000,"state":3,"copy":3.0344},{"cell_id":"SA039-A108762A-R03-C05","chr":"11","genomeStart":1834000001,"length":500000,"state":3,"copy":2.6511},{"cell_id":"SA039-A108762A-R03-C05","chr":"11","genomeStart":1834500001,"length":500000,"state":2,"copy":1.8727},{"cell_id":"SA039-A108762A-R03-C05","chr":"11","genomeStart":1835000001,"length":500000,"state":2,"copy":3.3048},{"cell_id":"SA039-A108762A-R03-C05","chr":"11","genomeStart":1835500001,"length":500000,"state":2,"copy":2.1075},{"cell_id":"SA039-A108762A-R03-C05","chr":"11","genomeStart":1836000001,"length":500000,"state":2,"copy":1.6906},{"cell_id":"SA039-A108762A-R03-C05","chr":"11","genomeStart":1836500001,"length":500000,"state":2,"copy":2.6971},{"cell_id":"SA039-A108762A-R03-C05","chr":"11","genomeStart":1837000001,"length":500000,"state":2,"copy":2.3328},{"cell_id":"SA039-A108762A-R03-C05","chr":"11","genomeStart":1837500001,"length":500000,"state":2,"copy":2.7044},{"cell_id":"SA039-A108762A-R03-C05","chr":"11","genomeStart":1838000001,"length":500000,"state":2,"copy":1.6818},{"cell_id":"SA039-A108762A-R03-C05","chr":"11","genomeStart":1838500001,"length":500000,"state":2,"copy":1.4077},{"cell_id":"SA039-A108762A-R03-C05","chr":"11","genomeStart":1839000001,"length":500000,"state":2,"copy":1.5676},{"cell_id":"SA039-A108762A-R03-C05","chr":"11","genomeStart":1839500001,"length":500000,"state":2,"copy":1.5233},{"cell_id":"SA039-A108762A-R03-C05","chr":"11","genomeStart":1840000001,"length":500000,"state":2,"copy":2.206},{"cell_id":"SA039-A108762A-R03-C05","chr":"11","genomeStart":1840500001,"length":500000,"state":2,"copy":1.9252},{"cell_id":"SA039-A108762A-R03-C05","chr":"11","genomeStart":1841000001,"length":500000,"state":2,"copy":1.9964},{"cell_id":"SA039-A108762A-R03-C05","chr":"11","genomeStart":1841500001,"length":500000,"state":2,"copy":2.3472},{"cell_id":"SA039-A108762A-R03-C05","chr":"11","genomeStart":1842000001,"length":500000,"state":2,"copy":1.7536},{"cell_id":"SA039-A108762A-R03-C05","chr":"11","genomeStart":1842500001,"length":500000,"state":2,"copy":2.285},{"cell_id":"SA039-A108762A-R03-C05","chr":"11","genomeStart":1843000001,"length":500000,"state":2,"copy":1.7176},{"cell_id":"SA039-A108762A-R03-C05","chr":"11","genomeStart":1843500001,"length":500000,"state":2,"copy":2.203},{"cell_id":"SA039-A108762A-R03-C05","chr":"11","genomeStart":1844000001,"length":500000,"state":2,"copy":2.286},{"cell_id":"SA039-A108762A-R03-C05","chr":"11","genomeStart":1844500001,"length":500000,"state":2,"copy":1.9056},{"cell_id":"SA039-A108762A-R03-C05","chr":"11","genomeStart":1845000001,"length":500000,"state":2,"copy":2.0345},{"cell_id":"SA039-A108762A-R03-C05","chr":"11","genomeStart":1845500001,"length":500000,"state":2,"copy":1.389},{"cell_id":"SA039-A108762A-R03-C05","chr":"11","genomeStart":1846000001,"length":500000,"state":2,"copy":1.7852},{"cell_id":"SA039-A108762A-R03-C05","chr":"11","genomeStart":1846500001,"length":500000,"state":2,"copy":1.3394},{"cell_id":"SA039-A108762A-R03-C05","chr":"11","genomeStart":1847000001,"length":500000,"state":3,"copy":3.3882},{"cell_id":"SA039-A108762A-R03-C05","chr":"11","genomeStart":1847500001,"length":500000,"state":3,"copy":3.4246},{"cell_id":"SA039-A108762A-R03-C05","chr":"11","genomeStart":1848000001,"length":500000,"state":3,"copy":3.832},{"cell_id":"SA039-A108762A-R03-C05","chr":"11","genomeStart":1848500001,"length":500000,"state":3,"copy":2.8713},{"cell_id":"SA039-A108762A-R03-C05","chr":"11","genomeStart":1849000001,"length":500000,"state":3,"copy":3.071},{"cell_id":"SA039-A108762A-R03-C05","chr":"11","genomeStart":1849500001,"length":500000,"state":3,"copy":1.4415},{"cell_id":"SA039-A108762A-R03-C05","chr":"11","genomeStart":1850000001,"length":500000,"state":3,"copy":2.7084},{"cell_id":"SA039-A108762A-R03-C05","chr":"11","genomeStart":1850500001,"length":500000,"state":3,"copy":1.5415},{"cell_id":"SA039-A108762A-R03-C05","chr":"11","genomeStart":1851000001,"length":500000,"state":3,"copy":2.7847},{"cell_id":"SA039-A108762A-R03-C05","chr":"11","genomeStart":1851500001,"length":500000,"state":3,"copy":3.4752},{"cell_id":"SA039-A108762A-R03-C05","chr":"11","genomeStart":1852000001,"length":500000,"state":3,"copy":3.0208},{"cell_id":"SA039-A108762A-R03-C05","chr":"11","genomeStart":1852500001,"length":500000,"state":3,"copy":2.6656},{"cell_id":"SA039-A108762A-R03-C05","chr":"11","genomeStart":1853000001,"length":500000,"state":3,"copy":2.571},{"cell_id":"SA039-A108762A-R03-C05","chr":"11","genomeStart":1853500001,"length":500000,"state":3,"copy":2.9516},{"cell_id":"SA039-A108762A-R03-C05","chr":"11","genomeStart":1854000001,"length":500000,"state":3,"copy":3.6047},{"cell_id":"SA039-A108762A-R03-C05","chr":"11","genomeStart":1854500001,"length":500000,"state":3,"copy":3.0355},{"cell_id":"SA039-A108762A-R03-C05","chr":"11","genomeStart":1855000001,"length":500000,"state":3,"copy":2.5563},{"cell_id":"SA039-A108762A-R03-C05","chr":"11","genomeStart":1855500001,"length":500000,"state":3,"copy":2.9219},{"cell_id":"SA039-A108762A-R03-C05","chr":"11","genomeStart":1856000001,"length":500000,"state":3,"copy":2.8766},{"cell_id":"SA039-A108762A-R03-C05","chr":"11","genomeStart":1856500001,"length":500000,"state":3,"copy":2.6094},{"cell_id":"SA039-A108762A-R03-C05","chr":"11","genomeStart":1857000001,"length":500000,"state":3,"copy":2.6903},{"cell_id":"SA039-A108762A-R03-C05","chr":"11","genomeStart":1857500001,"length":500000,"state":2,"copy":1.7104},{"cell_id":"SA039-A108762A-R03-C05","chr":"11","genomeStart":1858000001,"length":500000,"state":2,"copy":1.8329},{"cell_id":"SA039-A108762A-R03-C05","chr":"11","genomeStart":1858500001,"length":500000,"state":2,"copy":2.2152},{"cell_id":"SA039-A108762A-R03-C05","chr":"11","genomeStart":1859000001,"length":500000,"state":2,"copy":2.304},{"cell_id":"SA039-A108762A-R03-C05","chr":"11","genomeStart":1859500001,"length":500000,"state":2,"copy":2.3649},{"cell_id":"SA039-A108762A-R03-C05","chr":"11","genomeStart":1860000001,"length":500000,"state":2,"copy":2.0925},{"cell_id":"SA039-A108762A-R03-C05","chr":"11","genomeStart":1860500001,"length":500000,"state":2,"copy":2.1682},{"cell_id":"SA039-A108762A-R03-C05","chr":"11","genomeStart":1861000001,"length":500000,"state":2,"copy":2.0788},{"cell_id":"SA039-A108762A-R03-C05","chr":"11","genomeStart":1861500001,"length":500000,"state":2,"copy":1.6115},{"cell_id":"SA039-A108762A-R03-C05","chr":"11","genomeStart":1862000001,"length":500000,"state":2,"copy":2.5867},{"cell_id":"SA039-A108762A-R03-C05","chr":"11","genomeStart":1862500001,"length":500000,"state":2,"copy":2.0649},{"cell_id":"SA039-A108762A-R03-C05","chr":"11","genomeStart":1863000001,"length":500000,"state":2,"copy":1.6341},{"cell_id":"SA039-A108762A-R03-C05","chr":"11","genomeStart":1863500001,"length":500000,"state":2,"copy":1.8104},{"cell_id":"SA039-A108762A-R03-C05","chr":"11","genomeStart":1864000001,"length":500000,"state":2,"copy":2.1295},{"cell_id":"SA039-A108762A-R03-C05","chr":"11","genomeStart":1864500001,"length":500000,"state":2,"copy":1.8586},{"cell_id":"SA039-A108762A-R03-C05","chr":"11","genomeStart":1865000001,"length":500000,"state":2,"copy":2.3332},{"cell_id":"SA039-A108762A-R03-C05","chr":"11","genomeStart":1865500001,"length":500000,"state":2,"copy":2.4811},{"cell_id":"SA039-A108762A-R03-C05","chr":"11","genomeStart":1866000001,"length":500000,"state":2,"copy":2.1029},{"cell_id":"SA039-A108762A-R03-C05","chr":"11","genomeStart":1866500001,"length":500000,"state":2,"copy":2.4216},{"cell_id":"SA039-A108762A-R03-C05","chr":"11","genomeStart":1867000001,"length":500000,"state":2,"copy":2.7278},{"cell_id":"SA039-A108762A-R03-C05","chr":"11","genomeStart":1867500001,"length":500000,"state":2,"copy":1.3384},{"cell_id":"SA039-A108762A-R03-C05","chr":"11","genomeStart":1868000001,"length":500000,"state":2,"copy":2.3003},{"cell_id":"SA039-A108762A-R03-C05","chr":"11","genomeStart":1868500001,"length":500000,"state":2,"copy":2.1211},{"cell_id":"SA039-A108762A-R03-C05","chr":"11","genomeStart":1869000001,"length":500000,"state":2,"copy":1.4434},{"cell_id":"SA039-A108762A-R03-C05","chr":"11","genomeStart":1874000001,"length":500000,"state":2,"copy":2.0031},{"cell_id":"SA039-A108762A-R03-C05","chr":"11","genomeStart":1874500001,"length":500000,"state":2,"copy":2.0885},{"cell_id":"SA039-A108762A-R03-C05","chr":"11","genomeStart":1875000001,"length":500000,"state":2,"copy":2.5396},{"cell_id":"SA039-A108762A-R03-C05","chr":"11","genomeStart":1875500001,"length":500000,"state":2,"copy":3.5948},{"cell_id":"SA039-A108762A-R03-C05","chr":"11","genomeStart":1876000001,"length":500000,"state":2,"copy":2.6357},{"cell_id":"SA039-A108762A-R03-C05","chr":"11","genomeStart":1876500001,"length":500000,"state":2,"copy":2.6507},{"cell_id":"SA039-A108762A-R03-C05","chr":"11","genomeStart":1877000001,"length":500000,"state":2,"copy":1.881},{"cell_id":"SA039-A108762A-R03-C05","chr":"11","genomeStart":1877500001,"length":500000,"state":2,"copy":1.9899},{"cell_id":"SA039-A108762A-R03-C05","chr":"11","genomeStart":1878000001,"length":500000,"state":2,"copy":2.0109},{"cell_id":"SA039-A108762A-R03-C05","chr":"11","genomeStart":1878500001,"length":500000,"state":2,"copy":1.6953},{"cell_id":"SA039-A108762A-R03-C05","chr":"11","genomeStart":1879000001,"length":500000,"state":2,"copy":2.4477},{"cell_id":"SA039-A108762A-R03-C05","chr":"11","genomeStart":1879500001,"length":500000,"state":2,"copy":2.4221},{"cell_id":"SA039-A108762A-R03-C05","chr":"11","genomeStart":1880000001,"length":500000,"state":2,"copy":1.9492},{"cell_id":"SA039-A108762A-R03-C05","chr":"11","genomeStart":1880500001,"length":500000,"state":2,"copy":1.5016},{"cell_id":"SA039-A108762A-R03-C05","chr":"11","genomeStart":1881000001,"length":500000,"state":2,"copy":2.1103},{"cell_id":"SA039-A108762A-R03-C05","chr":"11","genomeStart":1881500001,"length":500000,"state":2,"copy":3.0737},{"cell_id":"SA039-A108762A-R03-C05","chr":"11","genomeStart":1882000001,"length":500000,"state":2,"copy":3.6991},{"cell_id":"SA039-A108762A-R03-C05","chr":"11","genomeStart":1882500001,"length":500000,"state":2,"copy":1.7421},{"cell_id":"SA039-A108762A-R03-C05","chr":"11","genomeStart":1883000001,"length":500000,"state":2,"copy":2.3639},{"cell_id":"SA039-A108762A-R03-C05","chr":"11","genomeStart":1883500001,"length":500000,"state":2,"copy":2.4291},{"cell_id":"SA039-A108762A-R03-C05","chr":"11","genomeStart":1884000001,"length":500000,"state":2,"copy":2.6148},{"cell_id":"SA039-A108762A-R03-C05","chr":"11","genomeStart":1884500001,"length":500000,"state":2,"copy":2.2565},{"cell_id":"SA039-A108762A-R03-C05","chr":"11","genomeStart":1885000001,"length":500000,"state":2,"copy":1.9869},{"cell_id":"SA039-A108762A-R03-C05","chr":"11","genomeStart":1885500001,"length":500000,"state":2,"copy":2.1233},{"cell_id":"SA039-A108762A-R03-C05","chr":"11","genomeStart":1886000001,"length":500000,"state":2,"copy":1.9989},{"cell_id":"SA039-A108762A-R03-C05","chr":"11","genomeStart":1886500001,"length":500000,"state":2,"copy":2.0965},{"cell_id":"SA039-A108762A-R03-C05","chr":"11","genomeStart":1887000001,"length":500000,"state":2,"copy":2.0504},{"cell_id":"SA039-A108762A-R03-C05","chr":"11","genomeStart":1887500001,"length":500000,"state":2,"copy":2.2383},{"cell_id":"SA039-A108762A-R03-C05","chr":"11","genomeStart":1889000001,"length":500000,"state":2,"copy":1.3481},{"cell_id":"SA039-A108762A-R03-C05","chr":"11","genomeStart":1889500001,"length":500000,"state":2,"copy":1.6579},{"cell_id":"SA039-A108762A-R03-C05","chr":"11","genomeStart":1890000001,"length":500000,"state":2,"copy":2.1052},{"cell_id":"SA039-A108762A-R03-C05","chr":"11","genomeStart":1890500001,"length":500000,"state":2,"copy":2.5511},{"cell_id":"SA039-A108762A-R03-C05","chr":"11","genomeStart":1891000001,"length":500000,"state":2,"copy":2.268},{"cell_id":"SA039-A108762A-R03-C05","chr":"11","genomeStart":1891500001,"length":500000,"state":3,"copy":2.9728},{"cell_id":"SA039-A108762A-R03-C05","chr":"11","genomeStart":1892000001,"length":500000,"state":3,"copy":2.852},{"cell_id":"SA039-A108762A-R03-C05","chr":"11","genomeStart":1892500001,"length":500000,"state":3,"copy":3.2744},{"cell_id":"SA039-A108762A-R03-C05","chr":"11","genomeStart":1893000001,"length":500000,"state":3,"copy":2.7531},{"cell_id":"SA039-A108762A-R03-C05","chr":"11","genomeStart":1893500001,"length":500000,"state":2,"copy":1.8572},{"cell_id":"SA039-A108762A-R03-C05","chr":"11","genomeStart":1894000001,"length":500000,"state":2,"copy":2.0222},{"cell_id":"SA039-A108762A-R03-C05","chr":"11","genomeStart":1894500001,"length":500000,"state":2,"copy":1.1832},{"cell_id":"SA039-A108762A-R03-C05","chr":"11","genomeStart":1895000001,"length":500000,"state":2,"copy":2.3773},{"cell_id":"SA039-A108762A-R03-C05","chr":"11","genomeStart":1895500001,"length":500000,"state":2,"copy":1.7766},{"cell_id":"SA039-A108762A-R03-C05","chr":"11","genomeStart":1896000001,"length":500000,"state":2,"copy":1.7359},{"cell_id":"SA039-A108762A-R03-C05","chr":"11","genomeStart":1896500001,"length":500000,"state":2,"copy":2.1069},{"cell_id":"SA039-A108762A-R03-C05","chr":"11","genomeStart":1897000001,"length":500000,"state":2,"copy":1.894},{"cell_id":"SA039-A108762A-R03-C05","chr":"11","genomeStart":1897500001,"length":500000,"state":2,"copy":1.2473},{"cell_id":"SA039-A108762A-R03-C05","chr":"11","genomeStart":1898000001,"length":500000,"state":2,"copy":1.7929},{"cell_id":"SA039-A108762A-R03-C05","chr":"11","genomeStart":1898500001,"length":500000,"state":2,"copy":1.8753},{"cell_id":"SA039-A108762A-R03-C05","chr":"11","genomeStart":1899000001,"length":500000,"state":2,"copy":2.1338},{"cell_id":"SA039-A108762A-R03-C05","chr":"11","genomeStart":1899500001,"length":500000,"state":2,"copy":1.7073},{"cell_id":"SA039-A108762A-R03-C05","chr":"11","genomeStart":1900000001,"length":500000,"state":2,"copy":1.7218},{"cell_id":"SA039-A108762A-R03-C05","chr":"11","genomeStart":1900500001,"length":500000,"state":2,"copy":1.8605},{"cell_id":"SA039-A108762A-R03-C05","chr":"11","genomeStart":1901000001,"length":500000,"state":2,"copy":1.6989},{"cell_id":"SA039-A108762A-R03-C05","chr":"11","genomeStart":1901500001,"length":500000,"state":2,"copy":1.7974},{"cell_id":"SA039-A108762A-R03-C05","chr":"11","genomeStart":1902000001,"length":500000,"state":2,"copy":1.2298},{"cell_id":"SA039-A108762A-R03-C05","chr":"11","genomeStart":1902500001,"length":500000,"state":2,"copy":2.1483},{"cell_id":"SA039-A108762A-R03-C05","chr":"11","genomeStart":1903000001,"length":500000,"state":2,"copy":1.9344},{"cell_id":"SA039-A108762A-R03-C05","chr":"11","genomeStart":1903500001,"length":500000,"state":2,"copy":2.3724},{"cell_id":"SA039-A108762A-R03-C05","chr":"11","genomeStart":1904000001,"length":500000,"state":2,"copy":2.5557},{"cell_id":"SA039-A108762A-R03-C05","chr":"11","genomeStart":1904500001,"length":500000,"state":2,"copy":2.5566},{"cell_id":"SA039-A108762A-R03-C05","chr":"11","genomeStart":1905000001,"length":500000,"state":2,"copy":2.2258},{"cell_id":"SA039-A108762A-R03-C05","chr":"11","genomeStart":1905500001,"length":500000,"state":2,"copy":3.2268},{"cell_id":"SA039-A108762A-R03-C05","chr":"11","genomeStart":1906000001,"length":500000,"state":2,"copy":2.2844},{"cell_id":"SA039-A108762A-R03-C05","chr":"11","genomeStart":1907000001,"length":500000,"state":2,"copy":2.4832},{"cell_id":"SA039-A108762A-R03-C05","chr":"11","genomeStart":1907500001,"length":500000,"state":2,"copy":2.8922},{"cell_id":"SA039-A108762A-R03-C05","chr":"11","genomeStart":1908000001,"length":500000,"state":2,"copy":2.7792},{"cell_id":"SA039-A108762A-R03-C05","chr":"11","genomeStart":1908500001,"length":500000,"state":2,"copy":0.4879},{"cell_id":"SA039-A108762A-R03-C05","chr":"11","genomeStart":1909000001,"length":500000,"state":2,"copy":1.4975},{"cell_id":"SA039-A108762A-R03-C05","chr":"11","genomeStart":1909500001,"length":500000,"state":2,"copy":2.4002},{"cell_id":"SA039-A108762A-R03-C05","chr":"11","genomeStart":1910000001,"length":500000,"state":2,"copy":2.4374},{"cell_id":"SA039-A108762A-R03-C05","chr":"11","genomeStart":1910500001,"length":500000,"state":2,"copy":1.6651},{"cell_id":"SA039-A108762A-R03-C05","chr":"11","genomeStart":1911000001,"length":500000,"state":2,"copy":2.0967},{"cell_id":"SA039-A108762A-R03-C05","chr":"11","genomeStart":1911500001,"length":500000,"state":2,"copy":1.3531},{"cell_id":"SA039-A108762A-R03-C05","chr":"11","genomeStart":1912000001,"length":500000,"state":2,"copy":1.917},{"cell_id":"SA039-A108762A-R03-C05","chr":"11","genomeStart":1912500001,"length":500000,"state":3,"copy":2.6816},{"cell_id":"SA039-A108762A-R03-C05","chr":"11","genomeStart":1913000001,"length":500000,"state":3,"copy":2.9134},{"cell_id":"SA039-A108762A-R03-C05","chr":"11","genomeStart":1913500001,"length":500000,"state":3,"copy":2.8359},{"cell_id":"SA039-A108762A-R03-C05","chr":"11","genomeStart":1914000001,"length":500000,"state":3,"copy":3.3721},{"cell_id":"SA039-A108762A-R03-C05","chr":"11","genomeStart":1914500001,"length":500000,"state":3,"copy":2.8607},{"cell_id":"SA039-A108762A-R03-C05","chr":"11","genomeStart":1915500001,"length":500000,"state":3,"copy":2.8363},{"cell_id":"SA039-A108762A-R03-C05","chr":"11","genomeStart":1916000001,"length":500000,"state":2,"copy":1.6244},{"cell_id":"SA039-A108762A-R03-C05","chr":"11","genomeStart":1916500001,"length":500000,"state":2,"copy":2.1943},{"cell_id":"SA039-A108762A-R03-C05","chr":"11","genomeStart":1917000001,"length":500000,"state":2,"copy":1.5626},{"cell_id":"SA039-A108762A-R03-C05","chr":"11","genomeStart":1917500001,"length":500000,"state":2,"copy":1.8573},{"cell_id":"SA039-A108762A-R03-C05","chr":"11","genomeStart":1918000001,"length":500000,"state":2,"copy":2.6211},{"cell_id":"SA039-A108762A-R03-C05","chr":"11","genomeStart":1918500001,"length":500000,"state":2,"copy":2.7906},{"cell_id":"SA039-A108762A-R03-C05","chr":"11","genomeStart":1919000001,"length":500000,"state":2,"copy":1.481},{"cell_id":"SA039-A108762A-R03-C05","chr":"11","genomeStart":1919500001,"length":500000,"state":2,"copy":2.3811},{"cell_id":"SA039-A108762A-R03-C05","chr":"11","genomeStart":1920000001,"length":500000,"state":3,"copy":2.9474},{"cell_id":"SA039-A108762A-R03-C05","chr":"11","genomeStart":1920500001,"length":500000,"state":3,"copy":3.0279},{"cell_id":"SA039-A108762A-R03-C05","chr":"11","genomeStart":1921000001,"length":500000,"state":3,"copy":3.7267},{"cell_id":"SA039-A108762A-R03-C05","chr":"11","genomeStart":1921500001,"length":500000,"state":3,"copy":3.6872},{"cell_id":"SA039-A108762A-R03-C05","chr":"11","genomeStart":1922000001,"length":500000,"state":3,"copy":2.8587},{"cell_id":"SA039-A108762A-R03-C05","chr":"11","genomeStart":1922500001,"length":500000,"state":2,"copy":2.3719},{"cell_id":"SA039-A108762A-R03-C05","chr":"11","genomeStart":1923000001,"length":500000,"state":2,"copy":2.0007},{"cell_id":"SA039-A108762A-R03-C05","chr":"11","genomeStart":1923500001,"length":500000,"state":2,"copy":2.0985},{"cell_id":"SA039-A108762A-R03-C05","chr":"11","genomeStart":1924000001,"length":500000,"state":2,"copy":2.0347},{"cell_id":"SA039-A108762A-R03-C05","chr":"11","genomeStart":1924500001,"length":500000,"state":2,"copy":1.7298},{"cell_id":"SA039-A108762A-R03-C05","chr":"11","genomeStart":1925000001,"length":500000,"state":2,"copy":1.6718},{"cell_id":"SA039-A108762A-R03-C05","chr":"11","genomeStart":1925500001,"length":500000,"state":2,"copy":2.0569},{"cell_id":"SA039-A108762A-R03-C05","chr":"11","genomeStart":1926000001,"length":500000,"state":3,"copy":3.6067},{"cell_id":"SA039-A108762A-R03-C05","chr":"11","genomeStart":1926500001,"length":500000,"state":3,"copy":2.9705},{"cell_id":"SA039-A108762A-R03-C05","chr":"11","genomeStart":1927000001,"length":500000,"state":3,"copy":3.6733},{"cell_id":"SA039-A108762A-R03-C05","chr":"11","genomeStart":1927500001,"length":500000,"state":3,"copy":2.9375},{"cell_id":"SA039-A108762A-R03-C05","chr":"11","genomeStart":1928000001,"length":500000,"state":3,"copy":1.6474},{"cell_id":"SA039-A108762A-R03-C05","chr":"11","genomeStart":1928500001,"length":500000,"state":3,"copy":2.3496},{"cell_id":"SA039-A108762A-R03-C05","chr":"11","genomeStart":1929000001,"length":500000,"state":3,"copy":3.2715},{"cell_id":"SA039-A108762A-R03-C05","chr":"11","genomeStart":1929500001,"length":500000,"state":3,"copy":2.6132},{"cell_id":"SA039-A108762A-R03-C05","chr":"11","genomeStart":1930000001,"length":500000,"state":3,"copy":2.63},{"cell_id":"SA039-A108762A-R03-C05","chr":"11","genomeStart":1930500001,"length":500000,"state":3,"copy":3.2796},{"cell_id":"SA039-A108762A-R03-C05","chr":"11","genomeStart":1931000001,"length":500000,"state":3,"copy":2.5327},{"cell_id":"SA039-A108762A-R03-C05","chr":"11","genomeStart":1931500001,"length":500000,"state":2,"copy":1.8292},{"cell_id":"SA039-A108762A-R03-C05","chr":"11","genomeStart":1932000001,"length":500000,"state":2,"copy":1.3745},{"cell_id":"SA039-A108762A-R03-C05","chr":"11","genomeStart":1932500001,"length":500000,"state":2,"copy":1.1139},{"cell_id":"SA039-A108762A-R03-C05","chr":"11","genomeStart":1933000001,"length":500000,"state":2,"copy":1.7729},{"cell_id":"SA039-A108762A-R03-C05","chr":"11","genomeStart":1933500001,"length":500000,"state":2,"copy":1.5336},{"cell_id":"SA039-A108762A-R03-C05","chr":"11","genomeStart":1934000001,"length":500000,"state":2,"copy":1.5383},{"cell_id":"SA039-A108762A-R03-C05","chr":"11","genomeStart":1934500001,"length":500000,"state":2,"copy":1.5749},{"cell_id":"SA039-A108762A-R03-C05","chr":"11","genomeStart":1935000001,"length":500000,"state":2,"copy":2.2577},{"cell_id":"SA039-A108762A-R03-C05","chr":"11","genomeStart":1935500001,"length":500000,"state":2,"copy":2.5337},{"cell_id":"SA039-A108762A-R03-C05","chr":"11","genomeStart":1936000001,"length":500000,"state":2,"copy":2.2431},{"cell_id":"SA039-A108762A-R03-C05","chr":"11",